
\data\
ngram 1=8253
ngram 2=42885

\1-grams:
-3.388545	!	-0.1786965
-2.547625	\">	-0.2629252
-3.755559	#	-0.2486331
-2.608933	&	-0.1511739
-4.531374	&AMP	-0.1376555
-3.36445	&C	-0.5868341
-4.084636	\'>	-0.145637
-2.675517	(	-0.4649739
-2.57339	)	-0.1934704
-3.976289	*	-0.1879926
-4.531374	*IN	-0.1365881
-3.501035	+	-0.2443862
-4.531374	++	-0.1366896
-4.531374	+APHORISM	-0.1374299
-1.401211	,	-0.5214145
-2.911905	-	-0.2229011
-4.531374	-\"AH	-0.1364358
-4.531374	-\"CRETION	-0.1365374
-4.531374	-\"DEQUATE	-0.1369129
-4.531374	-\"GETHER	-0.1350015
-4.531374	-\"ING	-0.1277579
-4.531374	-\"LY	-0.1375211
-4.531374	-\"MATE	-0.1254309
-4.531374	-\"MEN	-0.1356226
-4.531374	-\"PARE	-0.1335829
-4.531374	-\"PLE	-0.1368723
-4.531374	-\"POSE	-0.1252538
-4.531374	-\"SONERS	-0.1252538
-4.531374	-\"STANCES	-0.1355208
-4.531374	-\"TERING	-0.1371563
-4.531374	-\"TION	-0.1277579
-4.531374	-\"WITHSTANDING	-0.1355208
-4.531374	-\'ATION	-0.1200753
-4.531374	-\'PERATE	-0.1376493
-4.531374	-ABLE	-0.1287819
-4.531374	-ABLY	-0.1360497
-4.531374	-AGEMENT	-0.1376427
-4.531374	-ALLY	-0.1376427
-4.531374	-AMENT	-0.1200753
-4.531374	-ANCE	-0.1211806
-4.531374	-AND	-0.1352358
-4.531374	-ATION	-0.1240483
-4.531374	-ATIVES	-0.1331431
-4.531374	-BECAUSE	-0.1309374
-4.531374	-BED	-0.1364358
-4.531374	-BEING	-0.1376022
-4.531374	-BER	-0.2778406
-4.531374	-BERTY	-0.1254309
-4.531374	-BIT	-0.137359
-4.531374	-BLISHMENT	-0.1370447
-4.531374	-BOUR	-0.1365272
-4.531374	-BOVEMENTIONED	-0.1366287
-4.531374	-BUTE	-0.1339405
-4.531374	-BUTING	-0.1302992
-4.531374	-BY	-0.137136
-4.531374	-CAL	-0.1365983
-4.531374	-CASION	-0.1376325
-4.531374	-CATE	-0.1277579
-4.531374	-CATION	-0.1252538
-4.531374	-CATIONS	-0.1335829
-4.531374	-CAUSE	-0.1341958
-4.531374	-CEED	-0.1309374
-4.531374	-CEEDED	-0.1362022
-4.531374	-CEEDING	-0.2899053
-4.531374	-CEIVED	-0.1339405
-4.531374	-CENCE	-0.1200753
-4.531374	-CEPTANCE	-0.1252538
-4.531374	-CEPTION	-0.1331431
-4.531374	-CESSION	-0.1252538
-4.531374	-CESSORS	-0.1343285
-4.531374	-CHARGE	-0.1252538
-4.531374	-CHASED	-0.1335829
-4.531374	-CHIAVELS	-0.1368723
-4.531374	-CHIEF	-0.1369534
-4.531374	-CIENT	-0.1375009
-4.531374	-CIOSIUS	-0.1200753
-4.531374	-CISION	-0.1252538
-4.531374	-CLARATION	-0.1277579
-4.531374	-COME	-0.2901586
-4.531374	-COMING	-0.1073245
-4.531374	-CONDUCT	-0.1343285
-4.531374	-CREASE	-0.1350015
-4.531374	-CULAR	-0.1309374
-4.531374	-CULIAR	-0.1374502
-4.531374	-CULT	-0.1277579
-4.531374	-CUTORS	-0.1376427
-4.531374	-CY	-0.124873
-4.531374	-DABLE	-0.1375819
-4.531374	-DANEUM	-0.1277579
-4.531374	-DATE	-0.1254309
-4.531374	-DAY	-0.1376123
-4.531374	-DEMNIFICATION	-0.1252538
-4.531374	-DENT	-0.1252538
-4.358619	-DER	-0.1297785
-4.531374	-DERATION	-0.2778406
-4.531374	-DERS	-0.1317799
-4.531374	-DICAL	-0.1252538
-4.531374	-DINANCES	-0.1200753
-4.531374	-DINARY	-0.2902361
-4.531374	-DINATES	-0.1343285
-4.531374	-DINESS	-0.1277579
-4.531374	-DING	-0.133107
-4.531374	-DINGLY	-0.1317799
-4.531374	-DINGS	-0.1317799
-4.531374	-DOM	-0.1367505
-4.531374	-DRED	-0.1106565
-4.531374	-DUCE	-0.1376022
-4.531374	-DUCING	-0.1370042
-4.531374	-DUCTIONS	-0.1200753
-4.531374	-ECUTED	-0.1346039
-4.531374	-ED	-0.1527645
-4.531374	-EFFECTUALLY	-0.1339405
-4.531374	-EMPLIFICATION	-0.1252538
-4.531374	-ENCE	-0.119922
-4.531374	-ENT	-0.1200753
-4.531374	-ER	-0.1150527
-4.531374	-ESTEDNESS	-0.1317799
-4.531374	-ETHER	-0.1350015
-4.531374	-ETIES	-0.1254309
-4.531374	-EVER	-0.1362835
-4.531374	-FE	-0.1331431
-4.531374	-FECTION	-0.1373894
-4.531374	-FERENCE	-0.1374502
-4.531374	-FIED	-0.1302992
-4.531374	-FINEMENT	-0.1200753
-4.531374	-FIVE	-0.1200753
-4.531374	-FORE	-0.1322772
-4.531374	-FORESAID	-0.1368621
-4.531374	-FORTUNATE	-0.1376555
-4.531374	-FUL	-0.1374651
-4.531374	-GERS	-0.1309374
-4.531374	-GES	-0.1331431
-4.531374	-GING	-0.1309374
-4.531374	-GLAND	-0.1200753
-4.531374	-GORICAL	-0.1365983
-4.531374	-GY	-0.1252538
-4.531374	-HAM\'S	-0.1375009
-4.531374	-HANCEMENT	-0.1362022
-4.531374	-IARY	-0.2900775
-4.531374	-ING	-0.1508526
-4.531374	-INGLY	-0.1376022
-4.531374	-INTELLIGIBLE	-0.1254309
-4.531374	-INTERRUPTED	-0.1200753
-4.531374	-ION	-0.1365374
-4.531374	-IONS	-0.1376325
-4.531374	-ITY	-0.1376224
-4.531374	-JECTED	-0.1254309
-4.531374	-JESTY	-0.1685065
-4.531374	-JURED	-0.1339405
-4.531374	-KING	-0.1376022
-4.531374	-KNOWLEGDGE	-0.1200753
-4.531374	-LAR	-0.1373894
-4.531374	-LATION	-0.1324877
-4.358619	-LAW	-0.09860398
-4.531374	-LEDGE	-0.1252538
-4.531374	-LESS	-0.1200753
-4.531374	-LEY	-0.1170006
-4.531374	-LIAMENT	-0.1200753
-4.531374	-LIC	-0.1272134
-4.531374	-LIGENCE	-0.1200753
-4.531374	-LISHMENT	-0.1364967
-4.531374	-LITY	-0.1252538
-4.531374	-LIVERED	-0.1302992
-4.531374	-LUSTRIOUS	-0.1376325
-4.358619	-LY	-0.1374211
-4.531374	-MAGES	-0.1335829
-4.531374	-MAIN	-0.1343285
-4.531374	-MAINDER	-0.1277579
-4.531374	-MAND	-0.136994
-4.531374	-MASTER	-0.1271926
-4.531374	-MATE	-0.1253942
-4.531374	-MEAL	-0.1331431
-4.531374	-MEDIATE	-0.1376555
-4.531374	-MEDIATELY	-0.1297063
-4.531374	-MENCEMENT	-0.1191935
-4.531374	-MENT	-0.1878372
-4.531374	-MENTS	-0.1191935
-4.531374	-MERARY	-0.1324877
-4.531374	-METIC	-0.1277579
-4.531374	-MINATION	-0.1302992
-4.531374	-MINED	-0.1339405
-4.531374	-MISSIONERS	-0.2778406
-4.531374	-MITATIONS	-0.1317799
-4.531374	-MITER	-0.1339507
-4.531374	-MIUM	-0.1235778
-4.531374	-MODIOUS	-0.1317799
-4.531374	-MONEY	-0.1252538
-4.531374	-MONG	-0.1372678
-4.531374	-MOUNT	-0.1176692
-4.531374	-MOUNTING	-0.1302992
-4.531374	-MOVED	-0.1376427
-4.531374	-MUEL	-0.2297994
-4.531374	-NABLE	-0.1362022
-4.531374	-NADA	-0.1376325
-4.531374	-NAL	-0.1373435
-4.531374	-NANCES	-0.1374502
-4.531374	-NARY	-0.1372624
-4.531374	-NATES	-0.2869153
-4.531374	-NESS	-0.1335775
-4.531374	-NESSING	-0.1363546
-4.531374	-NEST	-0.1317799
-4.531374	-NG	-0.1375009
-4.531374	-NIED	-0.1350015
-4.531374	-NIFESTING	-0.1309374
-4.531374	-NISHED	-0.1339405
-4.531374	-NISHMENT	-0.1200753
-4.531374	-NISTRATORS	-0.1376493
-4.531374	-NITUDE	-0.1335829
-4.531374	-NIZED	-0.1365881
-4.531374	-NOUGH	-0.1254309
-4.531374	-NUITY	-0.1252538
-4.531374	-NUMERARY	-0.1372577
-4.531374	-OF	-0.1265074
-4.531374	-ON	-0.1260653
-4.531374	-ONED	-0.1187016
-4.531374	-ONER	-0.1331431
-4.531374	-ONERS	-0.1191935
-4.531374	-ONS	-0.1343285
-4.531374	-OR	-0.1343285
-4.531374	-OUNT	-0.2082144
-4.531374	-OUT	-0.13051
-4.531374	-OWANCES	-0.1277579
-4.531374	-PANIED	-0.2865273
-4.531374	-PEARS	-0.1373793
-4.531374	-PECTIVE	-0.1376022
-4.531374	-PED	-0.1252538
-4.531374	-PENDITURE	-0.1372678
-4.531374	-PER	-0.137592
-4.531374	-PERINTENDENCE	-0.1200753
-4.531374	-PLEASURE	-0.1357243
-4.531374	-PLEMENTAL	-0.1375009
-4.531374	-PLICABLE	-0.1277579
-4.531374	-PLICATION	-0.1252538
-4.531374	-PLOY	-0.1309374
-4.531374	-PLOYED	-0.1333014
-4.531374	-PLOYING	-0.1363438
-4.531374	-PLOYMENT	-0.1200753
-4.531374	-POINT	-0.231338
-4.531374	-POINTED	-0.1302526
-4.531374	-POINTMENT	-0.1347161
-4.531374	-PONED	-0.1277579
-4.531374	-PORTATION	-0.1252538
-4.531374	-PORTED	-0.1254309
-4.531374	-PORTUNITY	-0.1252538
-4.531374	-POSE	-0.1214175
-4.531374	-POSED	-0.1191034
-4.531374	-POSER	-0.1372272
-4.531374	-POSES	-0.1317799
-4.531374	-POSITION	-0.1364967
-4.531374	-PRESSION	-0.1252538
-4.531374	-PROVED	-0.1375819
-4.531374	-PROVEMENT	-0.1200753
-4.531374	-PROVEMENTS	-0.1317799
-4.531374	-PURTENANCES	-0.1373894
-4.531374	-PUTABLE	-0.1376123
-4.531374	-PUTATION	-0.1369332
-4.531374	-PUTING	-0.1277579
-4.531374	-QUATE	-0.1277579
-4.531374	-QUENCE	-0.1376123
-4.531374	-QUENT	-0.1374401
-4.531374	-QUIRED	-0.1339405
-4.531374	-QUIRING	-0.136994
-4.531374	-RACTERIZED	-0.1339405
-4.531374	-RAGE	-0.1374299
-4.531374	-RAL	-0.1375414
-4.531374	-RALLY	-0.1375211
-4.531374	-RANCE	-0.2778406
-4.531374	-RARIES	-0.1362022
-4.531374	-RATE	-0.1200753
-4.531374	-RATION	-0.1252538
-4.531374	-REES	-0.1339099
-4.531374	-REMY	-0.2842792
-4.531374	-RIES	-0.227507
-4.531374	-RING	-0.1302629
-4.531374	-RITIES	-0.1195527
-4.531374	-ROUS	-0.1200753
-4.531374	-RY	-0.1302992
-4.531374	-SAID	-0.1343285
-4.531374	-SARY	-0.1335829
-4.531374	-SCRIBED	-0.1339099
-4.531374	-SED	-0.1339405
-4.531374	-SELF	-0.1360497
-4.531374	-SELVES	-0.1376224
-4.531374	-SENTATIVES	-0.1366287
-4.531374	-SEQUENT	-0.1277579
-4.531374	-SERVATION	-0.1376224
-4.531374	-SES	-0.1341958
-4.531374	-SESSED	-0.1227506
-4.531374	-SESSION	-0.1252538
-4.531374	-SHIP	-0.1277579
-4.531374	-SIONERS	-0.1325335
-4.531374	-SISTANTS	-0.1375718
-4.531374	-SO	-0.1374198
-4.531374	-SOEVER	-0.1324877
-4.531374	-SON	-0.1331172
-4.531374	-SONAL	-0.1376123
-4.531374	-SONERS	-0.1292158
-4.531374	-SONS	-0.1251649
-4.531374	-SPECTED	-0.1373894
-4.531374	-SPECTION	-0.1374907
-4.531374	-SPECTIVELY	-0.1200486
-4.531374	-SPONDENT	-0.1368824
-4.531374	-SSESSED	-0.1331431
-4.531374	-STANCE	-0.1317799
-4.531374	-STANCES	-0.1335829
-4.531374	-STANTLY	-0.137592
-4.531374	-STRUCTED	-0.1200753
-4.531374	-STRUCTION	-0.1368621
-4.531374	-TAIN	-0.1340985
-4.531374	-TAINED	-0.1277579
-4.531374	-TAINING	-0.1315589
-4.531374	-TANTS	-0.1375718
-4.531374	-TATION	-0.1366287
-4.531374	-TATIONS	-0.1357243
-4.531374	-TATIVES	-0.1254309
-4.531374	-TATORS	-0.1371664
-4.531374	-TENDED	-0.1375009
-4.531374	-TENDENCE	-0.1200753
-4.531374	-TENTIARY	-0.2328914
-4.531374	-THAM	-0.09711017
-4.531374	-THAM\'S	-0.137511
-4.531374	-THE	-0.1375718
-4.531374	-THER	-0.12844
-4.531374	-THOR	-0.1324877
-4.531374	-TIAL	-0.1375009
-4.531374	-TICAL	-0.1376325
-4.531374	-TICLES	-0.1352358
-4.531374	-TIES	-0.1200753
-4.531374	-TIFIED	-0.1277579
-4.531374	-TING	-0.129025
-4.531374	-TINGUISHED	-0.1252538
-4.531374	-TINUED	-0.1302992
-4.531374	-TION	-0.2122054
-4.531374	-TIONED	-0.119806
-4.531374	-TIONLESS	-0.1376224
-4.531374	-TIONS	-0.15788
-4.531374	-TITUDE	-0.1200753
-4.531374	-TIVE	-0.1370752
-4.531374	-TIVELY	-0.1302992
-4.531374	-TODY	-0.1200753
-4.358619	-TOR	-0.1071399
-4.531374	-TORS	-0.1293658
-4.531374	-TRACTED	-0.1335829
-4.531374	-TRACTING	-0.1350015
-4.531374	-TRATE	-0.1368114
-4.531374	-TRICTION	-0.1200753
-4.531374	-TRONS	-0.1317799
-4.531374	-TUAL	-0.1376427
-4.531374	-TUITIES	-0.1317799
-4.531374	-TURAL	-0.1374097
-4.531374	-TURE	-0.1200753
-4.531374	-TURN	-0.1277579
-4.531374	-TY	-0.1326818
-4.531374	-UP	-0.1331431
-4.531374	-UPON	-0.1365983
-4.531374	-VAL	-0.1252538
-4.531374	-VED	-0.1364155
-4.531374	-VEN	-0.1374705
-4.531374	-VENIENCE	-0.1221003
-4.531374	-VENTED	-0.1339099
-4.531374	-VENTH	-0.1374299
-4.531374	-VENTION	-0.1252538
-4.531374	-VENTOR	-0.1324877
-4.531374	-VERAL	-0.1375563
-4.531374	-VERSAL	-0.1317799
-4.531374	-VERY	-0.1365272
-4.531374	-VING	-0.1374097
-4.531374	-VISION	-0.1328306
-4.531374	-VOR	-0.1343285
-4.531374	-WHERE	-0.1200753
-4.531374	-WHY	-0.1368114
-4.531374	-WISE	-0.1360497
-4.531374	-WORTH	-0.1200753
-4.531374	-YERS	-0.1372374
-1.556201	.	-0.6809242
-3.976289	/	-0.2380371
-3.414055	0	-1.090706
-3.441158	0>	-0.4904962
-3.260699	1	-0.7073947
-3.653251	1>	-0.6022255
-3.341622	2	-0.5536256
-3.441158	2>	-0.7331283
-3.501035	3	-0.3848815
-3.501035	3>	-0.7602395
-3.470065	4	-0.4173536
-3.501035	4>	-0.4762497
-3.609912	5	-0.5085494
-3.570508	5>	-0.6633059
-3.755559	6	-0.2664117
-3.501035	6>	-0.5320146
-3.7014	7	-0.8526151
-3.609912	7>	-0.6898861
-3.817449	8	-0.6595013
-3.609912	8>	-0.5426896
-3.976289	9	-0.6738548
-3.534384	9>	-0.5970751
-1.92599	:	-0.5306079
-4.531374	:-	-0.1375616
-4.531374	:ALLY	-0.1363492
-4.531374	:ALS	-0.1254309
-4.531374	:ANCE	-0.1374198
-4.531374	:ANS	-0.1317799
-4.531374	:AS	-0.1368216
-4.531374	:AT	-0.1309374
-4.531374	:BAND	-0.1373894
-4.531374	:BECILLIORITY	-0.1302992
-4.531374	:BER	-0.1117923
-4.531374	:BERY	-0.136385
-4.531374	:BITED	-0.136994
-4.531374	:BLY	-0.1376427
-4.531374	:BOURHOOD	-0.1373489
-4.531374	:BOURING	-0.1376427
-4.531374	:BOUT	-0.1363546
-4.531374	:BUSE	-0.1331431
-4.531374	:BY	-0.1376022
-4.531374	:CATION	-0.1254309
-4.531374	:CAUTION	-0.1117923
-4.531374	:CEED	-0.1117923
-4.531374	:CEPT	-0.1117923
-4.531374	:CER	-0.1252538
-4.531374	:CERNING	-0.1376493
-4.531374	:CERTAIN	-0.1339099
-4.531374	:CERTAINED	-0.1372881
-4.531374	:CESSFUL	-0.1347161
-4.531374	:CHIEF	-0.1355208
-4.531374	:CIES	-0.1252538
-4.531374	:CION	-0.1254309
-4.531374	:CIOUS	-0.1339099
-4.531374	:CIT	-0.1374097
-4.531374	:CLE	-0.1339507
-4.531374	:CLUSION	-0.1252538
-4.531374	:CLUSIVE	-0.1375313
-4.531374	:COMPANIED	-0.2865273
-4.531374	:CONFINED	-0.1376123
-4.531374	:COUNT	-0.1254309
-4.531374	:COURSE	-0.1376427
-4.531374	:CREASE	-0.1363546
-4.531374	:CULATED	-0.2803448
-4.531374	:CULATION	-0.1355208
-4.531374	:CUMENT	-0.1375313
-4.531374	:CUNDA	-0.1200753
-4.531374	:CUPATIONS	-0.1355107
-4.531374	:CUR	-0.1302992
-4.531374	:CURING	-0.1374502
-4.531374	:CURITY	-0.1214175
-4.531374	:D	-0.1376224
-4.531374	:DER	-0.1375718
-4.531374	:DERABLE	-0.1373995
-4.531374	:DERED	-0.1302992
-4.531374	:DICE	-0.1237451
-4.531374	:DICIAL	-0.1375414
-4.531374	:DILY	-0.1375718
-4.531374	:DOM	-0.1371867
-4.531374	:DUALS	-0.1252538
-4.531374	:DUCE	-0.1376555
-4.531374	:DULENT	-0.1375718
-4.531374	:DYING	-0.1341958
-4.531374	:E	-0.2836461
-4.531374	:EASINESS	-0.1254309
-4.531374	:ED	-0.1201808
-4.531374	:EN	-0.122457
-4.531374	:ENCE	-0.1150527
-4.531374	:ENCY	-0.1277579
-4.531374	:ER	-0.1100951
-4.531374	:ERY	-0.1331431
-4.531374	:ES	-0.1203909
-4.531374	:ESSED	-0.1252538
-4.531374	:EVER	-0.1376123
-4.531374	:FACTION	-0.1117923
-4.531374	:FECTS	-0.1252538
-4.531374	:FECTUALLY	-0.1376555
-4.531374	:FEIT	-0.1376555
-4.531374	:FENCE	-0.1210859
-4.531374	:FENCES	-0.1371664
-4.531374	:FENDER	-0.136385
-4.531374	:FER	-0.1261436
-4.531374	:FERED	-0.1277579
-4.531374	:FERENT	-0.1253421
-4.531374	:FERING	-0.1339405
-4.531374	:FERRING	-0.1339099
-4.531374	:FESSION	-0.1331431
-4.531374	:FICATIONS	-0.2892765
-4.531374	:FICIENTLY	-0.1376022
-4.531374	:FLE	-0.1200753
-4.531374	:FLOWERED	-0.1331431
-4.531374	:FUL	-0.137455
-4.531374	:GAINST	-0.1254144
-4.531374	:GATION	-0.1254309
-4.531374	:GENCE	-0.2780177
-4.531374	:GENCY	-0.1355208
-4.531374	:GENT	-0.1376427
-4.531374	:GESTION	-0.1331431
-4.531374	:GISLATOR	-0.1369433
-4.531374	:GREE	-0.1218168
-4.531374	:GRY	-0.1350015
-4.531374	:HAPS	-0.1372577
-4.531374	:HOLDER\'S	-0.1370752
-4.531374	:HOUSES	-0.1324877
-4.531374	:ING	-0.1244414
-4.531374	:INGLY	-0.1375515
-4.531374	:INGS	-0.1254309
-4.531374	:ION	-0.1302992
-4.531374	:JECTS	-0.1252538
-4.531374	:JUDICIAL	-0.1277579
-4.531374	:JUGAL	-0.1376427
-4.531374	:JURY	-0.1374502
-4.531374	:LAR	-0.2898546
-4.531374	:LATE	-0.1370042
-4.531374	:LATOR	-0.1343285
-4.531374	:LEDGE	-0.1332195
-4.531374	:LIATION	-0.119922
-4.531374	:LIC	-0.1376022
-4.531374	:LORS	-0.1331431
-4.531374	:LOU	-0.1355107
-4.531374	:LOWED	-0.1277579
-4.531374	:LY	-0.1338071
-4.531374	:MAGING	-0.1252538
-4.531374	:MAIN	-0.1276074
-4.531374	:MAN	-0.1339507
-4.531374	:MASTERS	-0.1317799
-4.531374	:MEDY	-0.1364764
-4.531374	:MENDS	-0.1277579
-4.531374	:MENT	-0.167687
-4.531374	:MER	-0.1216067
-4.531374	:MESTIC	-0.1373995
-4.531374	:MISSION	-0.1317799
-4.531374	:MITIES	-0.1117923
-4.531374	:MITTED	-0.1277579
-4.531374	:MON	-0.1375057
-4.531374	:MONS	-0.1324877
-4.531374	:MOST	-0.1364155
-4.531374	:MOUNT	-0.1254309
-4.531374	:MUNITY	-0.1331431
-4.531374	:NAL	-0.1376224
-4.531374	:NAPPING	-0.1200753
-4.531374	:NERAL	-0.1277579
-4.531374	:NESS	-0.1178494
-4.531374	:NICIOUS	-0.1277579
-4.531374	:NING	-0.1341958
-4.531374	:NISHMENT	-0.1294441
-4.531374	:NITIES	-0.1117923
-4.531374	:NITIVE	-0.1375616
-4.531374	:NOT	-0.1376493
-4.531374	:NUED	-0.1277579
-4.531374	:NVEYED	-0.1371664
-4.531374	:NY	-0.1938362
-4.531374	:ON	-0.1111032
-4.531374	:ONS	-0.1364663
-4.531374	:OUR	-0.1200753
-4.531374	:OUS	-0.1343285
-4.531374	:OUT	-0.1362219
-4.531374	:PACITY	-0.1254309
-4.531374	:PAREL	-0.1317799
-4.531374	:PEAR	-0.1276799
-4.531374	:PECTS	-0.1203909
-4.531374	:PENCE	-0.1200753
-4.531374	:PENS	-0.1368824
-4.531374	:PERIORITY	-0.1302992
-4.531374	:PERTY	-0.2764122
-4.531374	:PIFIED	-0.1339405
-4.531374	:PLE	-0.2280281
-4.531374	:PLEAT	-0.1373185
-4.531374	:PLOY	-0.1302992
-4.531374	:PLOYED	-0.1339507
-4.531374	:PON	-0.1372881
-4.531374	:PORTS	-0.1277579
-4.531374	:POSE	-0.181955
-4.531374	:POSES	-0.1252538
-4.531374	:PREGNATED	-0.1350015
-4.531374	:PREHENSIVENESS	-0.1252538
-4.531374	:PRESENTATIVE	-0.136994
-4.531374	:PRIVE	-0.1367302
-4.531374	:PULAR	-0.1343285
-4.531374	:PULSION	-0.1254309
-4.531374	:R	-0.1335829
-4.531374	:RAL	-0.1188341
-4.531374	:RALLY	-0.1117923
-4.531374	:RATED	-0.1339405
-4.531374	:RATIONS	-0.136923
-4.531374	:RATIVELY	-0.1368621
-4.531374	:REIGN	-0.1277579
-4.531374	:RENT	-0.136821
-4.531374	:RESS	-0.1117923
-4.531374	:RIAGE	-0.1347161
-4.531374	:RIENCE	-0.1373185
-4.531374	:RILY	-0.1355208
-4.531374	:RISONED	-0.1200753
-4.531374	:RS	-0.2902361
-4.531374	:RY	-0.1265178
-4.531374	:SATION	-0.1254309
-4.531374	:SELF	-0.1339507
-4.531374	:SEQUENCE	-0.1252538
-4.531374	:SIBLE	-0.1277579
-4.531374	:SIDERABLE	-0.232638
-4.531374	:SINESS	-0.1252538
-4.531374	:SION	-0.1031065
-4.531374	:SITE	-0.1376325
-4.531374	:SITITIOUS	-0.137592
-4.531374	:SIVE	-0.1331431
-4.531374	:SOEVER	-0.1254309
-4.531374	:SON	-0.121627
-4.531374	:SONS	-0.1229287
-4.531374	:SPECT	-0.1376123
-4.531374	:SPECTING	-0.1309374
-4.531374	:SPECTIVE	-0.1376555
-4.531374	:SPECTIVELY	-0.1277579
-4.531374	:SS	-0.2843668
-4.531374	:STANCE	-0.1370143
-4.531374	:STANCED	-0.1254309
-4.531374	:STANCES	-0.07931787
-4.531374	:STANDS	-0.1376022
-4.531374	:STRUMENT	-0.1355208
-4.531374	:TAINED	-0.1254309
-4.531374	:TAINS	-0.1365272
-4.531374	:TAKING	-0.1374907
-4.531374	:TANCE	-0.1297063
-4.531374	:TATING	-0.1309374
-4.531374	:TECTION	-0.1254309
-4.531374	:TENDED	-0.1001135
-4.531374	:TENTIONS	-0.2780177
-4.531374	:TER	-0.1245622
-4.531374	:TERESTS	-0.1372272
-4.531374	:TERFEIT	-0.1254309
-4.531374	:TERIAL	-0.1375313
-4.531374	:TERS	-0.1324877
-4.531374	:TERY	-0.1350015
-4.531374	:THER	-0.1192001
-4.531374	:THERS	-0.1366896
-4.531374	:THORITY	-0.1355107
-4.531374	:THOUGH	-0.1288907
-4.531374	:TIBLE	-0.1254309
-4.531374	:TICE	-0.1164999
-4.531374	:TICES	-0.1343285
-4.531374	:TICULAR	-0.1367864
-4.531374	:TIFY	-0.1368216
-4.531374	:TINGUISHED	-0.1324877
-4.531374	:TION	-0.1171324
-4.531374	:TIONE	-0.1376555
-4.531374	:TIONS	-0.1071399
-4.531374	:TIRE	-0.1373286
-4.531374	:TIRELY	-0.1117923
-4.531374	:TITUDE	-0.1252538
-4.531374	:TIVE	-0.1150527
-4.531374	:TRAORDINARY	-0.1376224
-4.531374	:TROD	-0.1324877
-4.531374	:TUNE	-0.1317799
-4.531374	:TURALLY	-0.1360497
-4.531374	:TURE	-0.1324877
-4.531374	:TUTES	-0.1365881
-4.531374	:TY	-0.1360497
-4.531374	:VALENT	-0.1374907
-4.531374	:VANTAGEOUS	-0.1277579
-4.531374	:VASIONS	-0.1252538
-4.531374	:VATE	-0.1372678
-4.531374	:VENTIONAL	-0.136994
-4.531374	:VERING	-0.1339099
-4.531374	:VIDE	-0.1371664
-4.531374	:VIDUAL	-0.1277579
-4.531374	:VIDUALS	-0.1200753
-4.531374	:VIGABLE	-0.1376427
-4.531374	:VIOUR	-0.1302992
-4.531374	:VOUS	-0.1369534
-4.531374	:WARE	-0.1252538
-4.358619	:_	-0.1338534
-2.169116	;	-0.4882296
-2.857576	<\"	-0.1469477
-4.084636	<\'	-0.1150645
-1.237761	</s>
-4.358619	<0	-1.740957
-2.928763	<1	-1.069221
-3.177017	<1>	-1.107418
-3.208582	<2	-0.6231229
-3.501035	<2>	-1.046492
-3.817449	<3	-0.3368012
-3.609912	<3>	-1.011319
-3.653251	<4	-0.3773937
-3.570508	<4>	-0.6868554
-3.889647	<5	-0.3060286
-3.609912	<5>	-0.8533188
-4.084636	<6	-0.2606124
-3.7014	<6>	-0.8425198
-3.889647	<7	-0.3007251
-3.817449	<7>	-1.003938
-4.084636	<8	-0.1980236
-3.817449	<8>	-0.4459461
-3.889647	<9	-0.2940563
-3.7014	<9>	-0.4967048
-99	<s>	-0.1335329
-4.531374	=	-0.1368317
-4.531374	=BLANCE	-0.1277579
-4.531374	=CIAL	-0.1375616
-4.531374	=CISE	-0.1117923
-4.531374	=DEM	-0.1376493
-4.531374	=DENCE	-0.1252538
-4.531374	=DULTERER\'S	-0.1376493
-4.531374	=ED	-0.1352358
-4.531374	=EQUATE	-0.1200753
-4.531374	=ES	-0.1252538
-4.531374	=FECT	-0.1356226
-4.531374	=GAINST	-0.1341958
-4.531374	=HENSION	-0.1375616
-4.531374	=IMP=	-0.1117923
-4.531374	=ING	-0.1324747
-4.531374	=ISH	-0.1373286
-4.531374	=ISSION	-0.1317799
-4.531374	=JUDICIAL	-0.1277579
-4.531374	=LAR	-0.1369332
-4.531374	=LECTED	-0.1365881
-4.531374	=LESS	-0.1371766
-4.531374	=LY	-0.1277579
-4.531374	=MENT	-0.1354849
-4.531374	=MIT	-0.1339099
-4.531374	=MOST	-0.1117923
-4.531374	=NED	-0.1277579
-4.531374	=NITIES	-0.136385
-4.531374	=PACITY	-0.1252538
-4.531374	=PART	-0.1277579
-4.531374	=PLY	-0.1302992
-4.531374	=PON	-0.1309374
-4.531374	=PRIZE	-0.1362835
-4.531374	=PRIZED	-0.1302992
-4.531374	=PUDIATIO	-0.1254309
-4.531374	=QUENTLY	-0.1341958
-4.531374	=QUO	-0.1376555
-4.531374	=SECUTOR	-0.1369534
-4.531374	=SION	-0.1339507
-4.531374	=SON	-0.1254309
-4.531374	=SONS	-0.136994
-4.531374	=TER	-0.1200753
-4.531374	=TICE	-0.1347161
-4.531374	=TIMESIN	-0.1309374
-4.531374	=TINUING	-0.1302992
-4.531374	=TION	-0.1200753
-4.531374	=TIONS	-0.1360497
-4.531374	=TIZAN	-0.1254309
-4.531374	=TRIBUTING	-0.1277579
-4.531374	=TY	-0.1376493
-2.705299	?	-0.4205543
-2.098878	A	-0.3774665
-3.817449	A-	-0.6309276
-3.534384	A=	-0.8997728
-4.531374	AB	-0.1376555
-4.531374	ABANDON	-0.1339099
-4.531374	ABATEMENT	-0.1043876
-4.531374	ABETTED	-0.1117923
-4.531374	ABHORS	-0.1254309
-4.358619	ABIDE	-0.2865273
-4.531374	ABILITY	-0.1200753
-4.531374	ABJECT	-0.1376555
-4.229331	ABLE	-0.7047223
-4.531374	ABODE	-0.1200753
-4.531374	ABOLISHING	-0.1309374
-4.531374	ABOLITION	-0.1117923
-3.192513	ABOUT	-0.323255
-3.319934	ABOVE	-0.1477688
-4.531374	ABOVE-MENTIONED	-0.2780177
-4.531374	ABOVEMENTI-	-0.1117923
-3.817449	ABOVEMENTIONED	-0.2267871
-4.531374	ABOVEMENTONED	-0.1366287
-4.358619	ABRIDGEMENT	-0.1232534
-4.358619	ABROAD	-0.1201013
-4.531374	ABSEISS	-0.1317799
-4.229331	ABSENCE	-0.09365043
-4.531374	ABSENT	-0.1375211
-4.531374	ABSENTS	-0.1376224
-4.358619	ABSOLUTE	-0.1199931
-3.653251	ABSOLUTELY	-0.1240053
-4.531374	ABSOLVITUR	-0.1324877
-4.531374	ABSTAIN	-0.2880975
-4.531374	ABSTRACTED	-0.1355107
-4.531374	ABSURD	-0.1277579
-4.358619	ABSURDITIES	-0.1178282
-4.531374	ABSURDITY	-0.1252538
-4.531374	ABUNDANCE	-0.1346039
-4.531374	ABUNDANT	-0.1376427
-3.889647	ABUSE	-0.1905133
-4.358619	ABUSED	-0.1032929
-4.229331	ABUSES	-0.1222207
-4.531374	ABUSING	-0.1339099
-4.531374	AC	-0.1324877
-4.358619	AC-	-0.2643791
-4.229331	AC=	-0.2629507
-4.531374	ACCASION	-0.137592
-4.229331	ACCEDED	-0.1968241
-3.889647	ACCEPT	-0.1553807
-4.531374	ACCEPT=	-0.1117923
-4.531374	ACCEPTANCE	-0.1200753
-4.229331	ACCEPTED	-0.09865873
-4.531374	ACCEPTORS	-0.1343285
-4.358619	ACCEPTS	-0.1344353
-4.531374	ACCESS	-0.1277579
-4.531374	ACCI-	-0.1117923
-3.976289	ACCIDENT	-0.1745313
-4.084636	ACCIDENTAL	-0.1375311
-4.531374	ACCIDENTS	-0.4100377
-4.531374	ACCOM-	-0.2643791
-4.531374	ACCOMMO-	-0.1117923
-4.531374	ACCOMMODATE	-0.1361663
-4.358619	ACCOMMODATION	-0.1216802
-4.531374	ACCOMMODATIONS	-0.2861697
-4.531374	ACCOMODATED	-0.1277579
-4.531374	ACCOMPA	-0.1117923
-3.889647	ACCOMPANIED	-0.4073479
-4.531374	ACCOMPLICE	-0.1350015
-4.229331	ACCOMPLICES	-0.1116412
-4.358619	ACCOMPLISH	-0.1293864
-4.531374	ACCOMPLISHED	-0.115234
-4.531374	ACCOMPLISHING	-0.2871907
-4.531374	ACCOMPLISHMENT	-0.09860398
-4.531374	ACCOR-	-0.1117923
-4.531374	ACCORD	-0.104923
-4.531374	ACCORD-	-0.1117923
-4.358619	ACCORD=	-0.2643791
-3.192513	ACCORDING	-1.13845
-3.470065	ACCORDINGLY	-0.1322695
-3.441158	ACCOUNT	-0.3668467
-4.531374	ACCOUNTED	-0.1335829
-4.531374	ACCOUNTS	-0.1374603
-4.531374	ACCOUNT_	-0.1376427
-4.531374	ACCRUED	-0.2072694
-4.358619	ACCRUES	-0.2880975
-4.531374	ACCT	-0.1252538
-4.358619	ACCUMULATED	-0.1012661
-4.531374	ACCURACY	-0.1309374
-4.531374	ACCUSE	-0.1117923
-4.358619	ACCUSED	-0.09860398
-4.531374	ACCUSER	-0.1369433
-4.531374	ACCUSTOMED	-0.1277579
-4.531374	ACERRIME	-0.1376555
-4.531374	ACKNOWLEDGE	-0.1117923
-4.084636	ACKNOWLEDGED	-0.1022445
-4.531374	ACQUAINT	-0.1374705
-4.531374	ACQUAINTANCE	-0.1350015
-4.531374	ACQUAINTED	-0.1350015
-4.531374	ACQUIESCES	-0.1352358
-4.531374	ACQUIRE	-0.1251858
-4.531374	ACQUIRED	-0.1375211
-4.531374	ACQUIREMENT	-0.1252538
-4.531374	ACQUISITION	-0.1339099
-4.084636	ACRES	-0.240867
-3.192513	ACT	-0.3505673
-4.229331	ACTED	-0.2284091
-4.084636	ACTING	-0.09876949
-4.229331	ACTION	-0.1643053
-4.084636	ACTIONS	-0.1140424
-4.084636	ACTIVE	-0.1330272
-4.531374	ACTORS	-0.1356226
-3.260699	ACTS	-0.1489723
-4.531374	ACTS-	-0.1374854
-4.531374	ACTU-	-0.1117923
-4.531374	ACTU=	-0.1117923
-3.889647	ACTUAL	-0.1877308
-3.7014	ACTUALLY	-0.1857356
-4.531374	ACUMEN	-0.1324877
-4.531374	ACUTE	-0.1317799
-4.531374	ACUTENESS	-0.1200753
-4.531374	AD=	-0.1117923
-4.358619	ADAPT	-0.2164285
-4.229331	ADAPTED	-0.3320955
-4.084636	ADD	-0.2358906
-4.084636	ADDED	-0.2090718
-4.229331	ADDING	-0.3322096
-4.531374	ADDINGTO	-0.1373995
-4.229331	ADDINGTON	-0.1811198
-4.531374	ADDINGTON_	-0.1117923
-3.570508	ADDITION	-0.3076732
-4.084636	ADDITIONAL	-0.1115486
-4.084636	ADDRESS	-0.09527767
-3.7014	ADDRESSED	-0.3834742
-4.229331	ADDUCED	-0.1033257
-4.531374	ADE-	-0.1117923
-4.229331	ADEQUATE	-0.1117408
-4.531374	ADHERE	-0.1277579
-4.531374	ADHERED	-0.1117923
-4.531374	ADJACENT	-0.2850745
-4.531374	ADJOIN	-0.1277579
-4.358619	ADJOINING	-0.1329312
-4.531374	ADJUSTED	-0.1337206
-4.531374	ADMEASURE-	-0.2643791
-4.531374	ADMEASUREMENT	-0.4930825
-4.531374	ADMI-	-0.1117923
-4.531374	ADMINIS-	-0.1117923
-4.531374	ADMINISTATION	-0.1343285
-4.531374	ADMINISTER\'D	-0.1277579
-4.358619	ADMINISTERED	-0.1093997
-4.229331	ADMINISTRATION	-0.1914504
-4.229331	ADMINISTRATOR	-0.2843015
-4.084636	ADMINISTRATORS	-0.2505572
-4.531374	ADMINS	-0.1117923
-4.084636	ADMIT	-0.2616062
-4.531374	ADMITT=	-0.1117923
-4.229331	ADMITTED	-0.1569182
-4.531374	ADMONISH	-0.1117923
-4.229331	ADMONISHED	-0.1651889
-4.531374	ADMONITION	-0.1347161
-4.531374	ADOPT	-0.1313329
-3.976289	ADOPTED	-0.2971629
-4.531374	ADOPTING	-0.1339099
-4.531374	ADORN	-0.1309374
-4.531374	ADORNS	-0.1352358
-4.531374	ADUL=	-0.1117923
-4.531374	ADULTE=	-0.1117923
-4.084636	ADULTERER	-0.1765974
-4.531374	ADULTERER\'S	-0.1376493
-4.084636	ADULTERESS	-0.09929495
-3.976289	ADULTERY	-0.6494256
-4.531374	ADULTS	-0.1373691
-4.358619	ADVANCE	-0.1968241
-4.084636	ADVANCED	-0.1041959
-4.531374	ADVANCING	-0.1376555
-3.570508	ADVANTAGE	-0.1641746
-4.358619	ADVANTAGEOUS	-0.1575685
-4.084636	ADVANTAGES	-0.1132668
-4.531374	ADVERSARY	-0.1363797
-4.531374	ADVERSE	-0.1375718
-4.531374	ADVERSES	-0.1375515
-4.531374	ADVERTING	-0.1277579
-4.084636	ADVICE	-0.1214932
-4.531374	ADVISED	-0.1375211
-4.531374	ADVISING	-0.1364155
-4.358619	ADVOCATE	-0.2102372
-4.531374	ADVOCATES	-0.1317799
-4.531374	ADVOCATE_	-0.1117923
-4.531374	AFFAIR	-0.09309563
-4.358619	AFFECT	-0.1104625
-4.229331	AFFECTED	-0.4100377
-4.531374	AFFECTI=	-0.1117923
-4.358619	AFFECTING	-0.2073301
-4.084636	AFFECTIONS	-0.09854792
-4.531374	AFFECTS	-0.136994
-4.531374	AFFECTUS	-0.1376427
-4.358619	AFFENDERS	-0.1161927
-4.531374	AFFIRM	-0.1327384
-4.531374	AFFIRMATIVE	-0.1309319
-4.531374	AFFLICTIVE	-0.1373387
-4.531374	AFFLICTIVELY	-0.1350015
-4.084636	AFFORD	-0.1322404
-3.976289	AFFORDED	-0.1008961
-4.229331	AFFORDING	-0.1800507
-4.229331	AFFORDS	-0.09965466
-4.531374	AFFRIGHT	-0.1373995
-4.358619	AFFRONT	-0.1351999
-4.531374	AFFRONTIVE	-0.1374097
-4.531374	AFORE-	-0.1117923
-3.817449	AFORESAID	-0.3730435
-4.531374	AFRAID	-0.1252538
-3.003619	AFTER	-0.3303985
-3.609912	AFTERWARDS	-0.1292106
-3.501035	AGAIN	-0.164565
-2.937444	AGAINST	-0.336027
-3.755559	AGE	-0.2080733
-4.531374	AGENCY	-0.1252538
-4.084636	AGENT	-0.07335742
-4.531374	AGENTS	-0.1252538
-4.229331	AGES	-0.1958091
-4.531374	AGGR	-0.1324877
-4.531374	AGGRAVATED	-0.1117923
-4.229331	AGGRAVATION	-0.09839797
-4.358619	AGGRAVATIONS	-0.2609235
-4.358619	AGGREGATE	-0.1116684
-4.531374	AGITUR	-0.1254309
-4.358619	AGO	-0.09214538
-4.084636	AGREE	-0.2435094
-4.358619	AGREE-	-0.2643791
-4.531374	AGREE=	-0.1117923
-4.531374	AGREEABLE	-0.1277579
-3.7014	AGREED	-0.7402345
-3.653251	AGREEMENT	-0.2544318
-4.531374	AGREEMENTS	-0.2712337
-4.084636	AGREES	-0.3392797
-4.531374	AGREGATE	-0.2901383
-4.531374	AGRICULTURE	-0.1200753
-4.531374	AH	-0.1374907
-4.531374	AI	-0.1376555
-4.358619	AID	-0.2147515
-4.531374	AIDED	-0.1339405
-4.531374	AIM	-0.1317799
-4.358619	AIMED	-0.2878226
-4.531374	AIR	-0.1368824
-4.531374	AIUNT	-0.1376555
-4.531374	AL-	-0.1117923
-3.976289	AL=	-0.4847995
-4.358619	ALARM	-0.1239542
-4.358619	ALARMED	-0.10921
-4.531374	ALARMING	-0.1367708
-4.531374	ALAS	-0.1200753
-4.531374	ALEADY	-0.1365881
-4.531374	ALES	-0.1365983
-4.531374	ALIAS	-0.1117923
-4.229331	ALIKE	-0.118024
-4.358619	ALIVE	-0.1316924
-2.809294	ALL	-0.2511501
-4.531374	ALL-	-0.1117923
-4.531374	ALL-WORK	-0.1317799
-4.531374	ALLEDGE	-0.1357243
-4.358619	ALLEDGED	-0.1116912
-4.531374	ALLEGI=	-0.1117923
-4.358619	ALLEGIANCE	-0.1308599
-4.531374	ALLIANCE	-0.1200753
-4.531374	ALLIANCES	-0.1376555
-4.531374	ALLING	-0.1376555
-4.358619	ALLOTTED	-0.1750185
-4.531374	ALLOW	-0.1376022
-4.531374	ALLOW\'D	-0.1346039
-4.358619	ALLOW-	-0.2643791
-4.531374	ALLOW=	-0.1117923
-3.414055	ALLOWANCE	-0.3298661
-4.229331	ALLOWANCES	-0.5865169
-4.531374	ALLOWE-	-0.1117923
-3.817449	ALLOWED	-0.3107388
-4.531374	ALLOWING	-0.2893576
-4.229331	ALLUDED	-0.2789164
-4.531374	ALLUDES	-0.1277579
-4.531374	ALLUDING	-0.1277579
-4.531374	ALLUSIONS	-0.1368114
-3.7014	ALMOST	-0.1578139
-3.755559	ALONE	-0.1273709
-4.229331	ALONG	-0.1867593
-3.299278	ALREADY	-0.1312842
-3.147591	ALSO	-0.3190172
-4.358619	ALTAR	-0.1071399
-4.531374	ALTER	-0.1309374
-4.358619	ALTERATION	-0.1222417
-4.531374	ALTERED	-0.1339099
-4.531374	ALTERING	-0.1309374
-4.531374	ALTERNATIVES	-0.1252538
-4.531374	ALTERS	-0.1274104
-3.889647	ALTHOUGH	-0.1426996
-3.501035	ALTOGETHER	-0.1690236
-3.470065	ALWAYS	-0.1451302
-4.531374	ALWAYS-	-0.1117923
-4.229331	AM	-0.1365745
-4.358619	AM-	-0.2629507
-4.531374	AMAN	-0.137136
-4.531374	AMBIGUOUS	-0.1200753
-4.531374	AMBITION	-0.1373387
-4.531374	AMELIORATION	-0.1252538
-3.976289	AMENABLE	-0.15701
-4.531374	AMENDABLE	-0.1277579
-4.358619	AMENDMENT	-0.1252379
-3.976289	AMENDS	-0.3074778
-4.531374	AMERCED	-0.1375718
-4.229331	AMERICA	-0.5722637
-4.531374	AMERICAN	-0.1376493
-4.531374	AMIABLE	-0.1357243
-4.358619	AMICABLE	-0.1373942
-4.229331	AMISS	-0.1969369
-3.976289	AMITY	-0.1596098
-4.531374	AMNESTY	-0.1200753
-3.299278	AMONG	-0.4578248
-3.976289	AMONGST	-0.1230351
-4.531374	AMOROUS	-0.1376555
-3.441158	AMOUNT	-0.6576071
-4.358619	AMOUNTED	-0.5799464
-4.358619	AMOUNTING	-0.282886
-4.531374	AMOUNTS	-0.1277579
-4.229331	AMPLE	-0.1289782
-4.531374	AMPLITUDE	-0.1376555
-4.358619	AMPUTATION	-0.1374413
-4.531374	AMUSE	-0.1373489
-4.531374	AMUSEMENT	-0.2886365
-4.531374	AMUSEMENTS	-0.1252538
-4.531374	AMUSING	-0.1376123
-2.604837	AN	-0.3303374
-4.531374	AN-	-0.1117923
-4.531374	AN=	-0.1117923
-4.531374	ANALOGOUS	-0.1254309
-4.358619	ANALOGY	-0.1150527
-4.531374	ANALYTICAL	-0.1375414
-4.531374	ANCE	-0.1241159
-4.531374	ANCESTORS	-0.1368824
-1.870731	AND	-0.2254333
-4.531374	AND^	-0.1376224
-4.531374	ANECDOTE	-0.1200753
-4.531374	ANG	-0.1254309
-4.531374	ANGER	-0.1252538
-4.531374	ANGRY	-0.1200753
-4.531374	ANIMAL	-0.1376123
-3.976289	ANIMALS	-0.1391643
-4.531374	ANIMATE	-0.1331431
-4.531374	ANIMATED	-0.1339405
-4.229331	ANIMUS	-0.2073231
-4.531374	ANN	-0.1376325
-4.531374	ANNALS	-0.1252538
-3.976289	ANNEXED	-0.4751407
-4.531374	ANNEXING	-0.1309374
-4.531374	ANNEXT	-0.1277579
-4.531374	ANNIHI-	-0.1117923
-4.531374	ANNOUNCED	-0.1339405
-4.531374	ANNOY=	-0.1117923
-4.229331	ANNUAL	-0.2217042
-4.531374	ANNUALLY	-0.1117923
-4.531374	ANNUITIES	-0.1254309
-4.531374	ANNUITIES-	-0.1376325
-4.084636	ANNUITY	-0.177413
-4.358619	ANNUM	-0.2156136
-4.531374	ANO-	-0.1117923
-4.358619	ANOMALITIES	-0.0987923
-3.208582	ANOTHER	-0.08700499
-4.531374	ANOTHER\'S	-0.1364764
-3.470065	ANSWER	-0.3101188
-4.531374	ANSWER\'D	-0.1302992
-4.531374	ANSWERABLE	-0.3125237
-4.531374	ANSWERED	-0.1302992
-4.531374	ANSWERING	-0.1309374
-4.531374	ANT	-0.2209694
-4.358619	ANTECEDENT	-0.1277318
-4.531374	ANTIENT	-0.1376555
-4.531374	ANXIETIES	-0.1277579
-4.531374	ANXIETY	-0.1277579
-4.229331	ANXIOUS	-0.1115767
-2.540536	ANY	-0.3850978
-4.531374	ANYTHING	-0.1117923
-4.358619	AP	-0.2850745
-3.755559	AP-	-0.7858295
-4.229331	AP=	-0.2629507
-4.229331	APART	-0.224304
-4.531374	APARTMENTS	-0.1252538
-4.531374	APEARANCES	-0.1200753
-3.976289	APHORISM	-0.113212
-4.229331	APHORISMS	-0.1072971
-4.358619	APINATIVE	-0.1146591
-4.531374	APOLOGIZE	-0.1335829
-4.531374	APP	-0.137592
-4.531374	APPARATUS	-0.1335829
-4.358619	APPARENT	-0.1369075
-4.531374	APPARENTLY	-0.1352358
-3.976289	APPEAL	-0.09142578
-4.531374	APPEAL-	-0.1376493
-4.531374	APPEALED	-0.1355107
-4.531374	APPEALS	-0.1200753
-3.414055	APPEAR	-0.3063087
-4.531374	APPEAR\'D	-0.1117923
-4.531374	APPEAR-	-0.1117923
-3.755559	APPEARANCE	-0.1852774
-4.229331	APPEARANCES	-0.1125971
-4.084636	APPEARED	-0.2812701
-4.531374	APPEARING	-0.2814577
-3.609912	APPEARS	-0.2282388
-4.531374	APPEASE	-0.1346039
-4.358619	APPELLATE	-0.288791
-4.229331	APPELLATION	-0.1625588
-4.531374	APPENDAGES	-0.1252538
-4.358619	APPENDIX	-0.1232583
-4.358619	APPETITES	-0.1205967
-4.531374	APPLAUDED	-0.1302992
-4.229331	APPLI-	-0.2629507
-4.084636	APPLICABLE	-0.5799464
-3.7014	APPLICATION	-0.2879356
-4.358619	APPLICATIONS	-0.1368595
-3.976289	APPLIED	-0.2913814
-4.084636	APPLIES	-0.1922665
-4.531374	APPLY	-0.1891944
-4.084636	APPLYING	-0.09988286
-3.817449	APPOINT	-0.2529284
-3.470065	APPOINTED	-0.3935935
-4.358619	APPOINTING	-0.2853542
-4.531374	APPOINTMENT	-0.1200753
-4.531374	APPRAISED	-0.1370143
-4.531374	APPRE=	-0.1117923
-4.531374	APPREHEND	-0.2069511
-4.531374	APPREHENDED	-0.1346039
-4.084636	APPREHENSION	-0.2617838
-4.358619	APPRENTICES	-0.1254114
-4.531374	APPRISED	-0.1252538
-4.358619	APPRIZED	-0.2778406
-4.531374	APPROACHES	-0.1114533
-4.358619	APPROBATION	-0.1304483
-4.358619	APPROPRIATE	-0.1116656
-4.229331	APPROPRIATED	-0.2789164
-4.531374	APPROVED	-0.1317799
-4.531374	APPROVING	-0.1252538
-4.084636	APPURTENANCES	-0.2048836
-3.976289	APRIL	-0.4880842
-3.7014	APT	-0.698604
-4.531374	APTITUDE	-0.1365983
-4.531374	AP^ELLANT	-0.1335829
-4.358619	AQUEDUCT	-0.1194576
-4.531374	AR-	-0.1117923
-4.531374	AR=	-0.1117923
-4.229331	ARBITRARY	-0.1102195
-4.358619	ARBITRATION	-0.2121549
-4.229331	ARBITRATORS	-0.1517267
-4.531374	ARBOR	-0.1373286
-4.531374	ARCHERY	-0.1335829
-4.531374	ARCHITEC-	-0.1117923
-4.229331	ARCHITECTS	-0.2752485
-4.358619	ARCHITECTURE	-0.133107
-4.531374	ARDOUR	-0.1117923
-4.531374	ARDUOUS	-0.1309374
-4.531374	ARDUUM	-0.1200753
-2.55848	ARE	-0.16481
-4.531374	AREA	-0.1302992
-4.531374	ARENARIA	-0.1376427
-4.531374	ARENARIUS	-0.1376427
-4.531374	ARGU	-0.1117923
-4.531374	ARGUING	-0.1317799
-4.084636	ARGUMENT	-0.1101922
-4.531374	ARGUMENTATION	-0.1343285
-4.531374	ARGUMENTS	-0.1362835
-3.976289	ARISE	-0.1553102
-4.358619	ARISES	-0.1348331
-4.531374	ARITH-	-0.1117923
-4.358619	ARITHMETIC	-0.1250294
-4.531374	ARM	-0.1362835
-3.817449	ARMED	-0.2396749
-4.531374	ARMY	-0.2843668
-4.531374	ARRANGE-	-0.1117923
-4.531374	ARRANGED	-0.1302992
-4.358619	ARRANGEMENT	-0.119922
-4.358619	ARRANGEMENTS	-0.1357088
-4.358619	ARREAR	-0.3048521
-4.358619	ARRIVAL	-0.1109309
-4.531374	ARRIVALS	-0.1355107
-3.889647	ARRIVED	-0.1413536
-4.531374	ARRIVES	-0.1200753
-3.755559	ART	-0.8289609
-4.531374	ARTI=	-0.1117923
-3.470065	ARTICLE	-0.1898246
-3.570508	ARTICLES	-0.2116501
-4.531374	ARTIFICES	-0.1376555
-4.084636	ARTIFICIAL	-0.1069469
-4.358619	ARTIST	-0.1349452
-4.531374	ARTISTS	-0.1277579
-4.358619	ARTS	-0.0987923
-4.531374	ARUNDO	-0.1376555
-2.115731	AS	-0.5396032
-4.229331	AS-	-0.2629507
-4.531374	ASCER-	-0.1117923
-4.531374	ASCERTAIN	-0.130438
-4.531374	ASCERTAINABLE	-0.1373185
-4.358619	ASCERTAINED	-0.1069168
-4.531374	ASE	-0.1339099
-4.084636	ASIDE	-0.09824799
-3.976289	ASK	-0.147436
-3.889647	ASKED	-0.1606644
-4.084636	ASKING	-0.09683211
-4.531374	ASKS	-0.1374705
-4.531374	ASLEEP	-0.1339405
-4.531374	ASORT	-0.1252538
-4.531374	ASPORTATION	-0.1117923
-4.531374	ASSAULTED	-0.1317799
-4.531374	ASSAULTER	-0.1366287
-4.531374	ASSAULTING	-0.1309374
-4.358619	ASSAULTS	-0.1244243
-4.531374	ASSAY	-0.1309374
-4.358619	ASSEMBLAGE	-0.2778406
-4.531374	ASSEMBLE	-0.1374502
-4.531374	ASSEMBLED	-0.1335829
-4.084636	ASSEMBLY	-0.1074427
-4.358619	ASSERT	-0.1334343
-4.358619	ASSERTION	-0.1345781
-4.531374	ASSERTIONS	-0.1200753
-4.358619	ASSIGNABLE	-0.1374854
-4.531374	ASSIGNATS	-0.1254309
-4.229331	ASSIGNED	-0.147436
-4.531374	ASSIGNEE	-0.4581847
-4.229331	ASSIGNEES	-0.4013378
-4.531374	ASSIS	-0.1324877
-4.531374	ASSIS-	-0.1117923
-4.531374	ASSIST	-0.1905122
-3.976289	ASSISTANCE	-0.109772
-4.531374	ASSISTANTS	-0.1375718
-4.531374	ASSOCIATE	-0.1335829
-4.229331	ASSOCIATES	-0.2082447
-4.531374	ASSOCIATION	-0.1200753
-4.531374	ASSORTED	-0.1117923
-4.358619	ASSUME	-0.1108181
-3.976289	ASSUMED	-0.09938867
-4.358619	ASSUMES	-0.1200064
-3.817449	ASSURANCE	-0.1706288
-4.531374	ASSURANCES	-0.1252538
-4.531374	ASSURE	-0.1367302
-4.358619	ASSURED	-0.119283
-4.531374	ASSUREDLY	-0.1360497
-4.531374	ASSURES	-0.1367708
-4.531374	ASTRAY	-0.1200753
-4.531374	ASTRIDE	-0.1309374
-4.531374	ASUNDER	-0.1317799
-2.252947	AT	-0.6590433
-4.531374	ATHANASIUS	-0.1200753
-4.531374	ATMOSPHERE	-0.1339507
-4.531374	ATRO=	-0.1117923
-3.976289	ATROCIOUS	-0.1284917
-4.531374	ATTACH	-0.1362022
-4.358619	ATTACHED	-0.1270889
-3.976289	ATTACK	-0.1657389
-4.531374	ATTACKED	-0.1254309
-4.358619	ATTACKING	-0.1243094
-4.531374	ATTAINING	-0.1277579
-4.084636	ATTEMPT	-0.1686203
-4.084636	ATTEMPTED	-0.2835101
-4.358619	ATTEMPTING	-0.2803448
-4.531374	ATTEMPTS	-0.2789164
-4.358619	ATTEND	-0.1097503
-4.531374	ATTENDANCE	-0.1302992
-3.755559	ATTENDED	-0.358493
-4.229331	ATTENDING	-0.1782064
-3.653251	ATTENTION	-0.1102794
-4.358619	ATTENTIONS	-0.1347821
-4.531374	ATTRIBUTE	-0.1252538
-4.531374	ATTRIBUTES	-0.1372577
-4.531374	AU-	-0.1117923
-4.531374	AU=	-0.1117923
-4.531374	AUDACITY	-0.1357243
-4.358619	AUDITIVE	-0.1199853
-4.531374	AUFERITOR	-0.1376427
-4.531374	AUFERUNTOR	-0.1254309
-4.229331	AUG	-0.2204623
-4.531374	AUGHT	-0.1277579
-4.531374	AUGMENTED	-0.2886897
-4.084636	AUGUST	-0.3491155
-4.531374	AUSPICE	-0.1252538
-4.358619	AUSPICES	-0.1191935
-4.531374	AUTHENTICATING	-0.1373286
-4.084636	AUTHOR	-0.1895669
-4.358619	AUTHOR\'S	-0.09870446
-4.531374	AUTHORISE	-0.2835242
-4.531374	AUTHORISING	-0.1365983
-4.531374	AUTHORITIES	-0.1117923
-3.534384	AUTHORITY	-0.1638439
-4.531374	AUTHORIZE	-0.1309374
-4.531374	AUTHORIZES	-0.1365881
-4.531374	AUTHORIZING	-0.1364358
-4.358619	AUTHORS	-0.1251858
-4.531374	AUXILIARY	-0.1376493
-4.358619	AVAILED	-0.2323844
-4.531374	AVARICE	-0.1331431
-4.531374	AVE-	-0.1117923
-4.531374	AVENGERS	-0.1200753
-4.531374	AVENUES	-0.1277579
-4.229331	AVERAGE	-0.2293532
-4.531374	AVERSE	-0.1117923
-4.358619	AVERSION	-0.1270058
-3.976289	AVOID	-0.102525
-4.531374	AVOIDED	-0.1347161
-4.358619	AVOIDING	-0.1309244
-4.531374	AVOWEDLY	-0.1347161
-4.531374	AW	-0.2136088
-4.531374	AWAITS	-0.1367708
-3.341622	AWAY	-0.1426556
-4.531374	AWKWARDNESS	-0.1254309
-3.817449	B	-0.8827733
-4.084636	B\'S	-0.2207187
-4.531374	BABLY	-0.1372171
-3.7014	BACK	-0.1307925
-4.531374	BACKED	-0.1339405
-4.531374	BACKING	-0.1367708
-4.531374	BACKS	-0.115362
-4.531374	BACKWARDS	-0.1200753
-3.192513	BAD	-0.2838935
-4.358619	BAG	-0.2597266
-4.531374	BAIT	-0.1346039
-4.531374	BALLANCE	-0.1252538
-4.531374	BALLS	-0.1200753
-4.531374	BALM	-0.1252538
-4.358619	BANISHED	-0.238216
-4.531374	BANISHMENT	-0.1331431
-4.229331	BANK	-0.4770071
-4.531374	BANKER\'S	-0.1376493
-4.531374	BANKERS	-0.1375515
-4.531374	BANKRUPT	-0.115234
-4.531374	BANKS	-0.1252538
-4.358619	BAR	-0.1071399
-4.531374	BARBARITY	-0.1365983
-4.358619	BARBAROUS	-0.1300362
-4.358619	BARE	-0.1375766
-4.531374	BARGAIN	-0.1339507
-4.531374	BARK	-0.1331431
-4.531374	BARKER	-0.1376555
-4.531374	BARLEY	-0.1200753
-4.358619	BARRIERS	-0.1309731
-4.531374	BARRINGTON\'S	-0.1117923
-4.531374	BARROWS	-0.1317799
-4.531374	BARS	-0.1357243
-4.531374	BARTER	-0.1367708
-4.084636	BASE	-0.1248543
-4.531374	BASELY	-0.1376493
-4.358619	BASIS	-0.4063504
-4.531374	BASK	-0.1368926
-4.358619	BASTILE	-0.1062916
-4.531374	BAT	-0.1117923
-4.531374	BATH	-0.520961
-3.976289	BATTERSEA	-0.2152364
-4.531374	BATTERY	-0.1254309
-4.531374	BAY	-0.1254309
-2.429466	BE	-0.242844
-3.889647	BE-	-0.6309276
-4.229331	BEAR	-0.1179286
-4.084636	BEARS	-0.2068022
-4.531374	BEAST	-0.1200753
-4.531374	BEAT	-0.1341394
-4.531374	BEATEN	-0.1331431
-4.531374	BEATS	-0.1309374
-4.531374	BEAUTIFUL	-0.1200753
-4.229331	BECAME	-0.1364622
-3.7014	BECAUSE	-0.2984623
-3.570508	BECOME	-0.1327925
-4.229331	BECOMES	-0.1517842
-4.531374	BECOMING	-0.1309374
-4.084636	BED	-0.2221006
-4.531374	BED-	-0.1117923
-4.358619	BEDDING	-0.1126186
-4.531374	BEDLAM	-0.1200753
-4.531374	BEDS	-0.1317799
-4.531374	BEEF	-0.1117923
-3.225269	BEEN	-0.2159676
-4.531374	BEFAL	-0.1117923
-3.057937	BEFORE	-0.2864131
-4.531374	BEFORE_	-0.1117923
-4.229331	BEG	-0.244376
-4.229331	BEGAN	-0.08210049
-4.531374	BEGGARLY	-0.1376427
-4.531374	BEGGARS	-0.1254309
-4.531374	BEGGING	-0.1277579
-4.084636	BEGIN	-0.3428181
-4.229331	BEGINNING	-0.1968241
-4.531374	BEGINS	-0.1350015
-4.531374	BEGOTTEN	-0.1252538
-4.531374	BEGS	-0.1346039
-4.358619	BEGUN	-0.128963
-4.531374	BEHA=	-0.1117923
-3.817449	BEHALF	-0.4521927
-4.358619	BEHAVE	-0.1275867
-4.358619	BEHAVED	-0.1114102
-4.531374	BEHAVI	-0.1324877
-4.531374	BEHAVING	-0.1302992
-4.084636	BEHAVIOUR	-0.118214
-4.229331	BEHIND	-0.2309717
-2.771793	BEING	-0.1655845
-4.084636	BEINGS	-0.2588858
-3.976289	BELIEVE	-0.191395
-4.358619	BELIEVING	-0.1992549
-4.358619	BELL	-0.1244869
-4.531374	BELLONA	-0.1254309
-4.531374	BELLS	-0.1117923
-4.531374	BELLY	-0.1200753
-4.531374	BELONA	-0.1200753
-4.084636	BELONG	-0.308225
-4.531374	BELONG-	-0.1117923
-4.084636	BELONGED	-0.4038551
-3.755559	BELONGING	-0.2838369
-3.976289	BELONGS	-0.1482418
-4.531374	BELOVED	-0.1339405
-4.531374	BELOW	-0.1368621
-4.229331	BEN-	-0.6309276
-4.531374	BEN-NIL-LING	-0.1370143
-4.531374	BEN-NIL-LONG	-0.1366896
-4.531374	BENCH	-0.2885216
-4.531374	BENEFICENCE	-0.1368824
-4.229331	BENEFICIAL	-0.1575685
-3.976289	BENEFIT	-0.4675719
-4.531374	BENEFITS	-0.2880975
-4.358619	BENEVOLENCE	-0.1242363
-4.229331	BENT	-0.1328456
-3.7014	BENTHAM	-0.3921995
-4.229331	BENTHAM\'S	-0.1432133
-4.531374	BENTHAMM	-0.1252538
-4.531374	BER	-0.1252538
-4.531374	BERY	-0.1293451
-4.531374	BESIDE	-0.1373083
-3.755559	BESIDES	-0.2328229
-4.531374	BESIEGED	-0.1339405
-4.531374	BESIGGED	-0.1376555
-4.229331	BEST	-0.1216132
-4.358619	BESTOWED	-0.1303605
-4.531374	BET=	-0.1117923
-4.358619	BETAKE	-0.1372928
-4.531374	BETAKES	-0.1371461
-4.531374	BETES	-0.1376427
-4.531374	BETHEREFORE	-0.1117923
-4.229331	BETRAY	-0.1154736
-4.531374	BETRAYED	-0.1370447
-3.501035	BETTER	-0.1107073
-3.299278	BETWEEN	-0.3921805
-4.531374	BETWIXT	-0.1309374
-3.976289	BEYOND	-0.1070031
-4.229331	BE^	-0.2328103
-4.531374	BILL	-0.1252538
-3.817449	BILLS	-0.4109349
-4.531374	BIND	-0.2820958
-3.976289	BIRTH	-0.0955226
-4.531374	BISHOP	-0.1252538
-4.358619	BISHOPS	-0.1348636
-4.531374	BIT	-0.1309374
-4.531374	BITTEN	-0.1302992
-4.358619	BLACK	-0.1316692
-4.531374	BLACK-	-0.1117923
-4.531374	BLACK-BERRIES	-0.1331431
-4.531374	BLACKBERRIES	-0.2857299
-4.358619	BLACKBURN	-0.2262533
-4.531374	BLACKHEATH	-0.1371563
-4.531374	BLAME	-0.1254309
-4.531374	BLANK	-0.1335829
-4.531374	BLANKETING	-0.1369332
-4.531374	BLANKETS	-0.1200753
-4.531374	BLANKS	-0.1252538
-4.531374	BLENDED	-0.1317799
-4.358619	BLIGHT	-0.1069877
-4.531374	BLIND	-0.1117923
-4.531374	BLOOD	-0.137136
-4.531374	BLOOD-RELATION	-0.09860398
-4.531374	BLOODSWORTH	-0.1364967
-4.358619	BLOW	-0.2283886
-4.531374	BLOWN	-0.1368317
-4.358619	BLUSH	-0.1352167
-4.531374	BLY	-0.1183897
-4.531374	BO	-0.1200753
-4.229331	BOARD	-0.2140328
-3.976289	BOAT	-0.1050534
-4.229331	BOATS	-0.2221006
-4.531374	BODIES	-0.1375819
-4.084636	BODILY	-0.3426279
-3.570508	BODY	-0.2000673
-4.531374	BODY\'S	-0.1375414
-4.531374	BOILING	-0.1376555
-4.358619	BONA	-0.2902423
-4.531374	BOND	-0.1200753
-4.531374	BONDAGE	-0.2780177
-4.531374	BONDS	-0.1200753
-4.531374	BONDSMAN	-0.1365069
-3.755559	BOOK	-0.3003852
-4.531374	BOOKS	-0.1200753
-4.531374	BOON	-0.1117923
-4.531374	BORN	-0.2865273
-4.358619	BORROW	-0.12712
-4.531374	BORROWS	-0.1200753
-4.358619	BOSOM	-0.1243721
-4.531374	BOTANY	-0.1376555
-3.441158	BOTH	-0.1396581
-4.531374	BOTTOM	-0.1252538
-4.358619	BOUGHT	-0.136024
-3.755559	BOUND	-0.3632679
-4.229331	BOUNDED	-0.5878111
-4.531374	BOUNDS	-0.1254309
-4.531374	BOX	-0.1200753
-4.358619	BOYS	-0.1363898
-4.531374	BRADFORD	-0.1200753
-4.084636	BRANCH	-0.1882366
-4.229331	BRANCHES	-0.2067628
-4.531374	BRASIERS	-0.1200753
-4.229331	BREACH	-0.2764122
-4.229331	BREAD	-0.1149404
-4.531374	BREADTH	-0.1317799
-4.358619	BREAK	-0.124393
-4.531374	BREAKING	-0.1117923
-4.358619	BREAST	-0.1221003
-4.531374	BREATHING	-0.1117923
-4.531374	BRETHREN	-0.1254309
-4.531374	BREWER	-0.1200753
-4.531374	BRICKS	-0.2072694
-4.358619	BRIDGE	-0.2726621
-4.531374	BRIGADIER	-0.2901586
-3.976289	BRING	-0.1491701
-4.229331	BRINGING	-0.1337765
-4.358619	BRINGS	-0.1113565
-4.358619	BRITAIN	-0.2335322
-4.084636	BRITISH	-0.1106122
-4.531374	BROKE	-0.137592
-3.889647	BROKEN	-0.07424281
-4.531374	BROKEN-UP	-0.1376555
-4.531374	BROKERS	-0.1117923
-4.531374	BROOK	-0.1309374
-4.358619	BROTHER	-0.2196063
-4.531374	BROTHER\'S	-0.1375616
-3.279561	BROUGHT	-0.2879518
-4.358619	BROWN	-0.3961725
-4.531374	BROWN\'S	-0.1117923
-4.531374	BRUMLANDS	-0.1200753
-4.531374	BRUTAL	-0.1376555
-4.531374	BU=	-0.1117923
-4.358619	BUCK	-0.1376365
-4.358619	BUIL-	-0.2643791
-4.531374	BUILD-	-0.1117923
-4.531374	BUILD=	-0.1117923
-3.501035	BUILDING	-0.3174944
-3.609912	BUILDINGS	-0.2765558
-4.229331	BUILT	-0.2275861
-4.229331	BULK	-0.6443891
-4.531374	BUONAPARTE	-0.2167862
-4.358619	BURGLARERS	-0.1353017
-4.229331	BURGLARY	-0.1135402
-4.531374	BURN	-0.2835242
-4.531374	BURNE\'S	-0.1376555
-4.358619	BURNING	-0.2292377
-4.358619	BURNT	-0.1150471
-4.358619	BURST	-0.1254114
-4.229331	BURTHEN	-0.2463066
-4.531374	BURTHENED	-0.1302992
-4.358619	BURTHENS	-0.1262579
-4.358619	BUSHEL	-0.1106559
-4.531374	BUSHELS	-0.1252538
-4.358619	BUSI=	-0.2643791
-3.817449	BUSINESS	-0.08749124
-2.731779	BUT	-0.2937495
-4.531374	BUTTON	-0.2902423
-4.531374	BUTTON-MAKING	-0.1254309
-4.531374	BUTTONS	-0.1335829
-4.358619	BUY	-0.1046447
-2.068197	BY	-0.4580064
-4.531374	BYE	-0.1376555
-4.358619	BYSTANDER	-0.1039667
-4.531374	BY^	-0.1370752
-4.084636	C	-1.461001
-4.531374	CABALISTICAL	-0.1364358
-4.531374	CABLE	-0.1350015
-4.358619	CAL=	-0.2643791
-4.531374	CALA=	-0.1117923
-4.084636	CALAMITIES	-0.1858878
-3.817449	CALAMITY	-0.2289765
-4.531374	CALCULA	-0.1117923
-3.889647	CALCULATED	-0.135109
-4.531374	CALCULATING	-0.1309374
-4.229331	CALCULATION	-0.1936376
-4.531374	CALCULATIONS	-0.2330535
-4.229331	CALENDAR	-0.210468
-4.531374	CALENDS	-0.1200753
-4.531374	CALIGULA	-0.1371461
-3.653251	CALL	-0.19499
-3.414055	CALLED	-0.1084745
-3.817449	CALLING	-0.245774
-4.229331	CALLS	-0.1282489
-4.531374	CALUMNIOUS	-0.1376022
-4.531374	CALUMNY	-0.1117923
-3.976289	CAME	-0.1633489
-4.531374	CAMPBEL	-0.119183
-4.531374	CAMPBEL\'S	-0.1375259
-4.084636	CAMPBELL	-0.1616591
-2.864933	CAN	-0.3786603
-4.531374	CAN\'T	-0.1376493
-4.358619	CANDID	-0.1055398
-4.358619	CANDIDATES	-0.2282602
-4.531374	CANDLE	-0.1368317
-4.531374	CANDOUR	-0.1355208
-3.441158	CANNOT	-0.1977923
-4.531374	CANOT	-0.1376325
-4.531374	CANTON	-0.1365881
-3.817449	CAPABLE	-0.2415058
-4.084636	CAPACITY	-0.1907752
-4.531374	CAPI-	-0.1117923
-3.976289	CAPITAL	-0.146168
-4.531374	CAPITALLY	-0.1117923
-4.531374	CAPITULA=	-0.1117923
-4.531374	CAPITULATION	-0.2850745
-4.531374	CAPRICE	-0.1331431
-4.531374	CAPRICIOUSLY	-0.1376555
-4.229331	CAPTAIN	-0.42188
-4.531374	CAR=	-0.1117923
-4.531374	CARDS	-0.1200753
-3.755559	CARE	-0.3477458
-4.358619	CAREFUL	-0.1202173
-4.229331	CAREFULLY	-0.1373853
-4.358619	CARES	-0.2803448
-4.229331	CARNAL	-0.2887403
-4.531374	CARNALI	-0.1324877
-4.531374	CARNALIS	-0.1376555
-4.531374	CARPET	-0.1362931
-4.229331	CARRIAGE	-0.1125377
-3.755559	CARRIED	-0.2827523
-3.817449	CARRY	-0.121479
-3.570508	CARRYING	-0.3288878
-3.242623	CASE	-0.3778644
-3.279561	CASES	-0.1827804
-4.531374	CASES-	-0.1117923
-4.531374	CASKS	-0.1302992
-4.531374	CASSIUS	-0.1365069
-4.229331	CAST	-0.1223885
-4.531374	CASTRATIONIS	-0.1376555
-4.531374	CASTRATOR	-0.1254309
-4.531374	CASU	-0.1376022
-4.531374	CATALOGUE	-0.2778406
-4.531374	CATE-	-0.1117923
-4.531374	CATHARINE	-0.1302992
-4.531374	CATHARINES	-0.1254309
-4.531374	CATHETER	-0.1368317
-4.531374	CATHOLIC	-0.1376493
-4.358619	CATTLE	-0.126497
-4.531374	CAUSA\"+	-0.1355208
-3.501035	CAUSE	-0.1402971
-4.229331	CAUSED	-0.2227091
-3.889647	CAUSES	-0.1352373
-4.084636	CAUSING	-0.2253798
-4.531374	CAUTION	-0.1277579
-4.531374	CCESSORS	-0.1200753
-4.358619	CEASE	-0.2803448
-4.531374	CEDING	-0.1376224
-4.531374	CEIVED	-0.2894997
-4.531374	CELEBRATED	-0.1374907
-4.531374	CELEBRES	-0.1254309
-4.531374	CENSURE	-0.1252538
-4.531374	CENSURED	-0.1346039
-4.531374	CENSURING	-0.1117923
-4.531374	CENT	-0.2844412
-4.531374	CENTER	-0.2726621
-4.531374	CENTURY	-0.1200753
-4.531374	CERNED	-0.1302992
-3.242623	CERTAIN	-0.1810569
-3.570508	CERTAINLY	-0.1410185
-3.889647	CERTAINTY	-0.1658736
-4.531374	CERTIFI-	-0.1117923
-4.531374	CERTIFICATE	-0.1968241
-4.531374	CERTIFICATES	-0.28952
-4.358619	CERTIFY	-0.09309563
-4.531374	CESSARY	-0.1335829
-4.531374	CESSATION	-0.1252538
-4.531374	CESSITY	-0.1302992
-3.889647	CH	-0.828133
-4.531374	CHA-	-0.1117923
-4.358619	CHALKED	-0.1109043
-3.609912	CHANCE	-0.2042052
-4.531374	CHANDLERS	-0.1200753
-4.531374	CHANG=	-0.1117923
-4.084636	CHANGE	-0.145293
-4.531374	CHANGED	-0.1352358
-4.531374	CHANGES	-0.1372779
-4.531374	CHANGING	-0.1309374
-4.531374	CHANISIM	-0.1324877
-4.358619	CHAPEL	-0.4136487
-4.531374	CHAPLAIN	-0.5722637
-4.084636	CHAPTER	-0.1556082
-4.531374	CHAPTERS	-0.1331431
-3.570508	CHARACTER	-0.2839923
-4.531374	CHARACTERISED	-0.1368621
-4.084636	CHARACTERISTIC	-0.1804172
-4.531374	CHARACTERISTICS	-0.1254309
-4.358619	CHARACTERIZE	-0.1337001
-4.531374	CHARACTERIZED	-0.1365069
-4.531374	CHARACTERIZING	-0.1309374
-4.531374	CHARACTERS	-0.1368824
-3.817449	CHARGE	-0.2534451
-4.531374	CHARGEABLE	-0.1356226
-4.358619	CHARGED	-0.1082466
-3.976289	CHARGES	-0.2042654
-4.531374	CHARITY	-0.1335829
-4.531374	CHARTA	-0.1200753
-4.531374	CHASING	-0.1335829
-4.358619	CHASTISEMENT	-0.1345781
-4.229331	CHASTITY	-0.1710353
-4.531374	CHEAPER	-0.2901687
-4.531374	CHEAT	-0.1364967
-4.229331	CHEATING	-0.1229441
-3.889647	CHECK	-0.09118247
-4.531374	CHECKED	-0.1364358
-4.358619	CHIEF	-0.2329183
-4.531374	CHIEFLY	-0.1339405
-3.755559	CHILD	-0.1187562
-3.976289	CHILDREN	-0.1013639
-3.976289	CHOICE	-0.2016761
-4.084636	CHOOSE	-0.2239307
-4.229331	CHOOSES	-0.1057412
-4.531374	CHOSE	-0.1277579
-4.084636	CHOSEN	-0.1668119
-4.531374	CHOSES	-0.1254309
-4.531374	CHRISTIAN	-0.137592
-4.531374	CHRISTIANITY	-0.1200753
-4.531374	CHRISTMAS-BOXES	-0.1369433
-4.358619	CHURCH	-0.2026979
-4.531374	CHUSES	-0.1366084
-4.531374	CHXI	-0.1254309
-4.531374	CHYMISTS	-0.1370752
-4.531374	CI-DEVANT	-0.1376123
-4.531374	CIBLE	-0.1376555
-4.531374	CICERO	-0.1200753
-4.531374	CIR=	-0.1117923
-4.531374	CIRCLE	-0.1200753
-4.358619	CIRCUITS	-0.1301083
-4.084636	CIRCULATE	-0.07841887
-4.531374	CIRCULATES	-0.1254309
-4.084636	CIRCULATION	-0.1331698
-4.531374	CIRCULATION-	-0.1117923
-4.531374	CIRCUM	-0.1324877
-4.358619	CIRCUM-	-0.2643791
-4.358619	CIRCUM=	-0.2643791
-4.531374	CIRCUMCIDITOR	-0.1347161
-4.531374	CIRCUMCISED	-0.1339099
-4.531374	CIRCUMSPECTION	-0.1339507
-4.531374	CIRCUMSTACES	-0.1343285
-4.531374	CIRCUMSTAN-	-0.1117923
-3.501035	CIRCUMSTANCE	-0.1679157
-4.084636	CIRCUMSTANCED	-0.1844644
-3.319934	CIRCUMSTANCES	-0.18707
-4.358619	CIRCUMSTANTIAL	-0.1116469
-4.531374	CIRUMSTANCES	-0.1252538
-4.531374	CISE	-0.1252538
-4.358619	CITED	-0.1116146
-4.531374	CITIZEN	-0.1324877
-4.531374	CIV	-0.1254309
-4.358619	CIVIL	-0.1889621
-4.531374	CIVILITY	-0.2253468
-4.229331	CIVILIZED	-0.2069036
-4.358619	CIVILLY	-0.1342312
-4.531374	CIVITAS	-0.1117923
-4.531374	CLAD	-0.1302992
-4.229331	CLAIM	-0.1080241
-4.358619	CLAIMED	-0.1264139
-4.531374	CLAMOUR	-0.1376493
-4.358619	CLANDESTINE	-0.1373841
-4.531374	CLAPED	-0.1373894
-3.341622	CLASS	-0.1850389
-3.755559	CLASSES	-0.1158262
-4.531374	CLASSING	-0.1371766
-3.817449	CLAUSE	-0.1771393
-4.229331	CLAUSES	-0.2599113
-4.358619	CLEAN	-0.2331945
-4.229331	CLEANLINESS	-0.1643238
-3.501035	CLEAR	-0.3245511
-4.531374	CLEAREST	-0.1375414
-4.358619	CLEARLY	-0.1085391
-4.531374	CLEMENT	-0.1376555
-4.358619	CLERGYMAN	-0.2188114
-4.531374	CLERK	-0.1329637
-4.531374	CLERKS	-0.1200753
-4.531374	CLIP-	-0.1117923
-4.531374	CLIPPED	-0.1252538
-4.358619	CLIPPINGS	-0.1320721
-4.531374	CLOATHED	-0.1200753
-4.531374	CLOATHES	-0.1373995
-3.889647	CLOATHING	-0.2011326
-4.358619	CLOATHS	-0.2198988
-4.531374	CLOCK	-0.1347161
-4.531374	CLOCKS-	-0.1117923
-4.229331	CLOSE	-0.2106107
-4.358619	CLOSELY	-0.1343156
-4.531374	CLOSER	-0.1376198
-4.531374	CLOSET	-0.1252538
-4.531374	CLOTH	-0.4126244
-4.358619	CLOTHING	-0.1109582
-4.531374	CLUB	-0.1331431
-4.531374	CLUDE	-0.1365881
-4.531374	CLUE	-0.1200753
-4.531374	CO	-0.1324877
-4.358619	CO-OFFENDERS	-0.2189123
-4.531374	COACHMAN	-0.1339405
-4.358619	COALS	-0.2726621
-4.531374	COARSE	-0.1365983
-4.531374	COAST	-0.1252538
-4.531374	COASTS	-0.1252538
-4.358619	COAT	-0.1158201
-4.531374	COCKER	-0.1317799
-4.531374	COD	-0.1254309
-3.817449	CODE	-0.1367691
-4.358619	COERCION	-0.1216067
-4.358619	COEXTENSIVE	-0.1343231
-4.531374	COGENT	-0.1376123
-4.531374	COGNIZANCE	-0.09860398
-4.531374	COHABITATION	-0.1309374
-3.208582	COIN	-0.4563237
-4.084636	COINAGE	-0.1086482
-4.229331	COINCIDE	-0.133824
-4.531374	COINCIDES	-0.1117923
-4.531374	COINER	-0.1025469
-4.358619	COINERS	-0.1099066
-4.531374	COINGAGE	-0.1339507
-3.7014	COINING	-0.105162
-4.531374	COINS	-0.1374603
-4.531374	COKE+	-0.1339507
-3.755559	COLD	-0.5934715
-4.531374	COLE-BE	-0.1254309
-4.531374	COLLAPSION	-0.1200753
-4.358619	COLLATERAL	-0.1116469
-4.531374	COLLEAGUE	-0.1117923
-4.531374	COLLEAGUES	-0.1200753
-4.358619	COLLECT	-0.1284717
-4.084636	COLLECTED	-0.1691161
-4.531374	COLLECTIVELY	-0.1331431
-4.229331	COLLINS	-0.1357084
-3.889647	COLONIES	-0.1490658
-4.358619	COLONISTS	-0.1170006
-3.755559	COLONY	-0.197082
-4.531374	COLORS	-0.1252538
-4.358619	COLOUR	-0.09860398
-3.976289	COM	-0.2580208
-4.084636	COM-	-0.6309276
-3.976289	COM=	-0.4847995
-4.531374	COMBATED	-0.1302992
-4.229331	COMBINATION	-0.1156334
-4.531374	COMBINED	-0.1376325
-3.570508	COME	-0.1539236
-3.570508	COMES	-0.1280396
-4.358619	COMFORT	-0.1012661
-4.229331	COMFORTS	-0.1035558
-4.084636	COMING	-0.1613106
-4.531374	COMM	-0.1254309
-4.229331	COMMAND	-0.1021514
-4.531374	COMMANDER	-0.1365881
-4.531374	COMMANDERS	-0.1252538
-4.229331	COMMANDING	-0.1073839
-4.531374	COMMANDS	-0.1200753
-4.531374	COMME	-0.1376555
-4.531374	COMMENCE	-0.1356226
-4.531374	COMMENCE-	-0.1117923
-4.531374	COMMENCED	-0.1200753
-4.229331	COMMENCEMENT	-0.2779884
-4.358619	COMMENSURATE	-0.1202173
-4.531374	COMMENT	-0.1376224
-4.531374	COMMENTARIES	-0.131574
-4.358619	COMMENTATIVE	-0.1253421
-4.531374	COMMERCE	-0.1200753
-4.531374	COMMERCIAL	-0.1376325
-4.358619	COMMIS-	-0.2643791
-4.531374	COMMISSARY	-0.2221173
-4.358619	COMMISSI-	-0.2643791
-4.229331	COMMISSION	-0.1264915
-4.084636	COMMISSIONERS	-0.3379408
-4.531374	COMMISSIONS	-0.1252538
-4.084636	COMMIT	-0.1752536
-4.531374	COMMIT-	-0.1117923
-4.358619	COMMITS	-0.1302862
-4.531374	COMMITT	-0.1302992
-3.341622	COMMITTED	-0.2158558
-4.358619	COMMITTEE	-0.2152987
-4.358619	COMMITTING	-0.228491
-4.531374	COMMODIOUS	-0.1317799
-3.534384	COMMON	-0.1655617
-3.817449	COMMONLY	-0.1237829
-4.358619	COMMONS	-0.1949787
-4.229331	COMMOTIONS	-0.1351843
-4.358619	COMMUNICATE	-0.1370597
-4.531374	COMMUNICATED	-0.1012661
-4.358619	COMMUNICATING	-0.1012661
-4.358619	COMMUNICATION	-0.2133863
-4.358619	COMMUNITIES	-0.1312712
-4.229331	COMMUNITY	-0.2760658
-4.531374	COMPA=	-0.2643791
-4.229331	COMPACTS	-0.215079
-4.531374	COMPANIED	-0.1350015
-4.531374	COMPANIES	-0.1200753
-4.531374	COMPANIONS	-0.2896518
-4.229331	COMPANY	-0.1065688
-4.229331	COMPARATIVE	-0.200055
-4.531374	COMPARATIVELY	-0.1375515
-4.358619	COMPARED	-0.1226877
-4.531374	COMPARISON	-0.1252538
-4.229331	COMPASS	-0.1873711
-4.358619	COMPASSED	-0.1123989
-4.358619	COMPASSION	-0.1097503
-4.358619	COMPEL	-0.1284248
-4.531374	COMPELLABLE	-0.1117923
-3.976289	COMPELLED	-0.2035055
-4.531374	COMPELLS	-0.1374705
-4.531374	COMPEN=	-0.1117923
-4.531374	COMPENSATED	-0.1302992
-3.817449	COMPENSATION	-0.08357525
-4.084636	COMPETENT	-0.1896693
-4.531374	COMPETITION	-0.1347161
-4.358619	COMPLAIN	-0.1126564
-4.229331	COMPLAINED	-0.09399772
-4.229331	COMPLAINTS	-0.09234844
-4.531374	COMPLAISANT	-0.1375211
-3.889647	COMPLEAT	-0.169876
-4.531374	COMPLEATED	-0.1335829
-4.229331	COMPLEATLY	-0.1097151
-4.531374	COMPLEATNESS	-0.1302992
-4.358619	COMPLETE	-0.1117544
-4.531374	COMPLETED	-0.1302992
-4.229331	COMPLETELY	-0.1117652
-4.531374	COMPLEXION	-0.1252538
-4.531374	COMPLIAMENT	-0.1117923
-4.531374	COMPLIANCE	-0.1350015
-4.358619	COMPLICATED	-0.1297888
-4.531374	COMPLICITY	-0.1350015
-4.531374	COMPLIES	-0.1254309
-4.531374	COMPLIMENTS	-0.1277579
-4.531374	COMPOS\'D	-0.1254309
-4.358619	COMPOSE	-0.1274104
-4.531374	COMPOSED	-0.1252538
-4.531374	COMPOSER	-0.1347161
-4.531374	COMPOSITI=	-0.1117923
-3.889647	COMPOSITION	-0.1379757
-4.358619	COMPOSITIONS	-0.1360306
-4.531374	COMPOUND	-0.1343285
-4.358619	COMPREHEND	-0.1036763
-4.531374	COMPREHENSIVE	-0.1376555
-4.358619	COMPRISED	-0.105425
-4.531374	COMPRIZED	-0.1324877
-4.531374	COMPU-	-0.2643791
-4.229331	COMPULSION	-0.1158465
-4.531374	COMPULSIVE	-0.1373387
-4.084636	COMPUTATION	-0.1495321
-4.531374	COMPUTED	-0.2789164
-4.531374	COMTEMPLATING	-0.1309374
-3.976289	CON	-0.2580208
-3.7014	CON-	-0.8650107
-3.653251	CON=	-0.8997728
-4.531374	CONCEAL-	-0.1117923
-4.358619	CONCEALED	-0.1344455
-4.358619	CONCEALMENT	-0.09860398
-4.531374	CONCEIT	-0.1317799
-3.889647	CONCEIVE	-0.2320106
-4.531374	CONCEIVED	-0.1277579
-4.531374	CONCEIVING	-0.1339099
-4.531374	CONCENTRATE	-0.1309374
-4.531374	CONCENTRATION	-0.1117923
-4.084636	CONCEPTION	-0.1769
-4.531374	CONCEPTIONS	-0.1375211
-3.889647	CONCERN	-0.1303926
-4.358619	CONCERN=	-0.2643791
-3.570508	CONCERNED	-0.4497812
-3.470065	CONCERNING	-0.2902475
-3.976289	CONCERNS	-0.08641725
-4.531374	CONCERTS	-0.1200753
-4.531374	CONCILIATING	-0.1363546
-4.531374	CONCISELY	-0.1200753
-4.358619	CONCISENESS	-0.1185061
-4.358619	CONCLUDE	-0.1039667
-4.531374	CONCLUDED	-0.2262533
-4.084636	CONCLUSION	-0.132575
-4.531374	CONCLUSIVE	-0.1117544
-4.358619	CONCLUSIVELY	-0.1095019
-4.531374	CONCOMITANT	-0.1117923
-4.531374	CONCUPISCIBLE	-0.1376493
-4.229331	CONCUR	-0.1210803
-4.531374	CONCURRED	-0.1302992
-4.358619	CONCURRENCE	-0.3275783
-4.531374	CONCURRING	-0.1350015
-4.531374	CONDESCENDED	-0.1366084
-4.531374	CONDIT	-0.1324877
-3.817449	CONDITION	-0.1767266
-4.531374	CONDITIONED	-0.1200753
-3.817449	CONDITIONS	-0.1833497
-4.531374	CONDUCIVE	-0.1277579
-3.570508	CONDUCT	-0.3328063
-4.531374	CONDUCTS	-0.1317799
-4.531374	CONDUILT	-0.1375515
-4.531374	CONFEDERACIES	-0.1252538
-4.229331	CONFEDERACY	-0.09158867
-4.531374	CONFEDERACY#	-0.1277579
-4.358619	CONFEDERATES	-0.1201013
-4.531374	CONFERENCE	-0.1200753
-4.531374	CONFESS	-0.1371461
-4.531374	CONFESSED	-0.2726621
-4.531374	CONFI	-0.1324877
-4.531374	CONFIDENCE	-0.1178494
-4.531374	CONFIDENTIAL	-0.1376555
-4.531374	CONFIDENTLY	-0.1376224
-4.531374	CONFINE	-0.1284924
-4.531374	CONFINE-	-0.2643791
-4.358619	CONFINE=	-0.2643791
-3.755559	CONFINED	-0.5133972
-3.470065	CONFINEMENT	-0.09288203
-4.084636	CONFINING	-0.4918798
-4.531374	CONFIRM	-0.1364358
-4.531374	CONFIRMED	-0.1337308
-4.358619	CONFLAGRATION	-0.1216067
-4.531374	CONFORM	-0.1277579
-4.358619	CONFORMABLE	-0.2803448
-4.531374	CONFORMITY	-0.1277579
-4.084636	CONFOUNDED	-0.2064749
-4.531374	CONFOUNDED_	-0.1117923
-4.531374	CONFRONTED	-0.1317799
-4.229331	CONFUSION	-0.2242316
-4.531374	CONGENIAL	-0.1317799
-4.531374	CONGREGATION	-0.1324877
-4.531374	CONGREGATIONS	-0.1254309
-4.531374	CONICT	-0.1375718
-4.531374	CONJOINED	-0.1350015
-4.531374	CONJUGAL	-0.1117436
-4.358619	CONJUGATE	-0.1277385
-4.531374	CONJUGATES	-0.1376022
-4.531374	CONJUNCTION	-0.1200753
-4.084636	CONNECTED	-0.2800372
-4.531374	CONNECTIONS	-0.1374502
-4.531374	CONNIVANCE	-0.1339099
-4.531374	CONPENSATION	-0.1335829
-4.531374	CONQUER	-0.1302992
-4.229331	CONQUERED	-0.1107801
-4.531374	CONQUERING	-0.1373894
-4.531374	CONQUEST	-0.1252538
-4.531374	CONSCIENCE	-0.1200753
-3.889647	CONSCIOUS	-0.3319723
-4.531374	CONSCIOUS-	-0.1117923
-3.889647	CONSCIOUSNESS	-0.1153638
-4.531374	CONSE-	-0.1117923
-3.653251	CONSENT	-0.2563017
-4.358619	CONSENTED	-0.1012661
-4.358619	CONSENTING	-0.1244243
-3.889647	CONSEQUENCE	-0.2477405
-3.976289	CONSEQUENCES	-0.1480314
-4.531374	CONSEQUENT	-0.1376123
-4.358619	CONSEQUENTIAL	-0.2901485
-4.358619	CONSEQUENTLY	-0.1117544
-4.531374	CONSI	-0.1324877
-4.531374	CONSI-	-0.2643791
-4.531374	CONSI=	-0.1117923
-4.229331	CONSIDER	-0.2255839
-4.531374	CONSIDER\'D	-0.1376427
-4.531374	CONSIDER-	-0.1117923
-4.531374	CONSIDERA-	-0.2643791
-4.084636	CONSIDERABLE	-0.1735584
-4.531374	CONSIDERABLY	-0.1376555
-3.609912	CONSIDERATION	-0.2333293
-3.817449	CONSIDERATIONS	-0.1406393
-3.889647	CONSIDERED	-0.2291248
-3.976289	CONSIDERING	-0.3355817
-4.084636	CONSIGNED	-0.2121904
-4.358619	CONSISTED	-0.282886
-4.084636	CONSISTENT	-0.4110987
-4.229331	CONSISTING	-0.194162
-4.229331	CONSISTS	-0.2258209
-4.531374	CONSOLATION	-0.1117923
-4.531374	CONSPICUOUS	-0.1117923
-4.531374	CONSPIRA-	-0.1117923
-4.358619	CONSPIRACY	-0.1071399
-4.531374	CONSTABLE	-0.1200753
-4.531374	CONSTABLES	-0.1200753
-4.084636	CONSTANT	-0.1782944
-4.531374	CONSTANT=	-0.1117923
-3.653251	CONSTANTLY	-0.2106277
-4.531374	CONSTI=	-0.1117923
-4.084636	CONSTITUTE	-0.2563739
-4.358619	CONSTITUTED	-0.1207757
-4.358619	CONSTITUTES	-0.1802771
-4.531374	CONSTITUTION	-0.1376427
-4.531374	CONSTITUTIONAL	-0.290189
-4.531374	CONSTRAINTS	-0.1200753
-4.531374	CONSTRUCT-	-0.1117923
-4.084636	CONSTRUCTION	-0.1510959
-4.531374	CONSULT	-0.1252538
-4.531374	CONSULTED	-0.1309374
-4.358619	CONSULTING	-0.2875883
-4.531374	CONSUMABLE	-0.1375313
-3.976289	CONSUMED	-0.1716572
-4.531374	CONSUMMATE	-0.1277579
-4.531374	CONSUMMATION	-0.1117923
-4.358619	CONTACT	-0.1337308
-4.531374	CONTAGION	-0.1254309
-3.976289	CONTAIN	-0.1086843
-4.531374	CONTAIN-	-0.1117923
-4.229331	CONTAINED	-0.2262877
-4.229331	CONTAINING	-0.2007956
-4.531374	CONTAINS	-0.1104841
-4.358619	CONTEMPLATION	-0.119922
-3.755559	CONTEMPT	-0.3167903
-4.531374	CONTENANCE	-0.1331431
-4.229331	CONTENT	-0.1969482
-4.531374	CONTENTED	-0.1117923
-4.531374	CONTENTING	-0.1373489
-4.358619	CONTENTS	-0.2376172
-4.358619	CONTI=	-0.2643791
-4.531374	CONTIBUTES	-0.1277579
-4.531374	CONTIGUOUS	-0.2857299
-4.531374	CONTINGENCIES	-0.1254309
-4.531374	CONTINGENCY	-0.1309374
-4.358619	CONTINUAL	-0.2072049
-4.358619	CONTINUALLY	-0.1302862
-4.531374	CONTINUANCE	-0.2764122
-3.755559	CONTINUE	-0.5049437
-4.229331	CONTINUED	-0.162253
-4.358619	CONTINUES	-0.1368466
-4.358619	CONTINUING	-0.2803448
-3.755559	CONTRACT	-0.3246999
-4.229331	CONTRACTED	-0.2113782
-4.358619	CONTRACTING	-0.2290435
-4.531374	CONTRACTOR	-0.2894692
-4.084636	CONTRACTS	-0.2463693
-4.531374	CONTRADICTION	-0.1347161
-4.531374	CONTRADISTINCT	-0.1117923
-4.531374	CONTRADISTINCTION	-0.1277579
-4.531374	CONTRADUCING	-0.1117923
-4.358619	CONTRARY	-0.1496922
-4.531374	CONTRAY	-0.1373995
-4.531374	CONTRECTATIO	-0.1376493
-4.358619	CONTRI-	-0.2643791
-4.229331	CONTRIBUTE	-0.400041
-4.358619	CONTRIBUTES	-0.1302799
-4.531374	CONTRIBUTING	-0.1364155
-4.531374	CONTRIBUTORY	-0.1277579
-4.084636	CONTRIVANCE	-0.1305904
-4.229331	CONTRIVED	-0.2818066
-4.531374	CONTRIVING	-0.1375211
-4.531374	CONTROL	-0.2778406
-4.531374	CONTROLS	-0.1339099
-4.358619	CONTROUL	-0.1489441
-4.531374	CONTROULL	-0.1376493
-4.531374	CONTROVERSY	-0.1254309
-4.531374	CONTROVERTED	-0.1254309
-4.531374	CONVEN	-0.1117923
-4.531374	CONVENANT	-0.1376022
-3.889647	CONVENIENT	-0.1537892
-4.229331	CONVENTION	-0.114011
-4.531374	CONVENTIONAL	-0.1375718
-4.531374	CONVER	-0.1309374
-4.229331	CONVERSATION	-0.1142619
-4.358619	CONVERSE	-0.1335264
-4.531374	CONVERSING	-0.1356226
-4.084636	CONVERT	-0.1419882
-4.531374	CONVERTED	-0.1370447
-4.358619	CONVERTING	-0.2285626
-4.531374	CONVEY	-0.1331431
-4.531374	CONVEY\'D	-0.1317799
-4.358619	CONVEYANCE	-0.1363289
-4.084636	CONVEYED	-0.1968238
-4.531374	CONVEYING	-0.1333525
-3.653251	CONVICT	-0.09557296
-3.755559	CONVICTED	-0.3843043
-4.531374	CONVICTING	-0.1341958
-3.817449	CONVICTION	-0.2578161
-3.299278	CONVICTS	-0.2913122
-4.531374	CONVINCED	-0.1252538
-4.531374	COOK	-0.1364967
-4.531374	COP=	-0.1117923
-4.531374	COPIED	-0.3924967
-4.531374	COPIES	-0.1252538
-4.229331	COPPER	-0.2704823
-4.531374	COPY	-0.1365069
-4.531374	CORDIAL	-0.1252538
-4.531374	CORDING	-0.1277579
-4.084636	CORN	-0.2826333
-4.531374	CORNER	-0.1376555
-4.229331	CORPORAL	-0.2069734
-4.531374	CORPORAL\'S	-0.1376555
-4.358619	CORPORATION	-0.1200077
-4.531374	CORPS	-0.1252538
-4.531374	CORPUS	-0.1373894
-4.531374	CORRE-	-0.1117923
-4.531374	CORRECTING	-0.1328203
-4.531374	CORRECTION	-0.1364967
-4.531374	CORRECTIONS	-0.1117923
-4.531374	CORRECTIVES	-0.1346039
-4.531374	CORRES-	-0.1117923
-4.358619	CORRESPONDENCE	-0.1347821
-4.358619	CORRESPONDENT	-0.1277385
-4.358619	CORRESPONDING	-0.1277007
-4.531374	CORROBORA	-0.1376493
-4.229331	CORROBORATE	-0.1738236
-4.358619	CORRUPTED	-0.09230348
-4.229331	CORRUPTION	-0.2026979
-4.229331	COST	-0.1811198
-4.531374	COSTLY	-0.1317799
-4.084636	COSTS	-0.2463864
-4.531374	COTTA-	-0.1117923
-3.024538	COULD	-0.3335532
-4.531374	COUN=	-0.1117923
-4.531374	COUNCIL	-0.1200753
-4.531374	COUNCILS	-0.1200753
-4.531374	COUNT	-0.137511
-4.531374	COUNTENANCE	-0.1331431
-4.531374	COUNTER	-0.1277579
-4.531374	COUNTER=	-0.1117923
-4.531374	COUNTERACT	-0.1200753
-4.531374	COUNTERBALANCE	-0.1309374
-3.570508	COUNTERFEIT	-0.2634546
-4.531374	COUNTERFEITED	-0.1331431
-4.531374	COUNTERFEITING	-0.2764122
-4.229331	COUNTERFEITS	-0.1160537
-4.531374	COUNTERVAIL	-0.1254309
-4.084636	COUNTIES	-0.0906262
-4.229331	COUNTRIES	-0.2599113
-3.441158	COUNTRY	-0.2468929
-3.976289	COUNTY	-0.143025
-4.531374	COUNTY-	-0.1117923
-4.358619	COUPLE	-0.1247791
-4.531374	COUPLED	-0.1350015
-3.755559	COURSE	-0.2163845
-3.976289	COURT	-0.3412147
-4.531374	COURTIER	-0.1331431
-4.531374	COURTLY	-0.1376555
-4.358619	COURTS	-0.119922
-4.531374	COVE	-0.136923
-4.358619	COVENANT	-0.230493
-4.358619	COVENANTS	-0.2726621
-4.358619	COVER	-0.1263044
-4.358619	COVERED	-0.1114748
-4.358619	COVERING	-0.1351693
-4.358619	COVERS	-0.1115501
-4.531374	COVEYED	-0.1339405
-4.531374	COW	-0.1376555
-4.531374	COWE	-0.1376493
-4.531374	COWPER	-0.1357243
-4.531374	CREASED	-0.1277579
-4.229331	CREATED	-0.2285626
-4.531374	CREATING	-0.1341958
-4.358619	CREATOR	-0.175923
-4.358619	CREATURE	-0.2073301
-4.358619	CREATURES	-0.1357238
-4.358619	CREDIT	-0.1210494
-4.358619	CREDITOR	-0.1726281
-4.358619	CREDITORS	-0.5799464
-4.358619	CREWS	-0.1222157
-4.531374	CRIED	-0.1376493
-3.755559	CRIME	-0.120108
-3.470065	CRIMES	-0.1740361
-4.531374	CRIMES-	-0.1374603
-3.470065	CRIMINAL	-0.1481062
-4.358619	CRIMINALITY	-0.1241632
-4.358619	CRIMINALLY	-0.09590247
-4.358619	CRIMINALS	-0.2079569
-4.531374	CRIMINATING	-0.1374603
-4.531374	CRIPPS	-0.1200753
-4.531374	CRITERION	-0.1200753
-4.358619	CRITICAL	-0.1117787
-4.531374	CROP	-0.2780177
-4.084636	CROPS	-0.07012778
-4.358619	CROWD	-0.1170375
-3.976289	CROWDED	-0.1447386
-4.229331	CROWDING	-0.110295
-4.229331	CROWN	-0.350132
-4.531374	CROWN-	-0.1117923
-4.531374	CRUDELIUS	-0.1200753
-4.531374	CRUELLY	-0.1200753
-4.531374	CRUELTIES	-0.1376427
-4.358619	CRUELTY	-0.1179448
-4.358619	CRUSHING	-0.133897
-4.531374	CRY	-0.1368418
-3.976289	CULPABLE	-0.1829174
-4.358619	CULTURE	-0.2764122
-4.531374	CUM	-0.1376555
-4.531374	CUNNING	-0.1254309
-4.531374	CUR=	-0.1117923
-4.229331	CURE	-0.1489441
-4.358619	CURED	-0.1123989
-4.531374	CURING	-0.1252538
-4.229331	CURIOUS	-0.1886239
-4.084636	CURRENCY	-0.1246637
-3.817449	CURRENT	-0.2498575
-4.531374	CURSORY	-0.1375414
-4.531374	CUS-	-0.1117923
-3.889647	CUSTODY	-0.2625288
-3.976289	CUSTOM	-0.1598712
-4.358619	CUSTOMARY	-0.2156136
-4.531374	CUSTOMERS	-0.1352358
-4.358619	CUSTOMS	-0.1735982
-3.889647	CUT	-0.2741183
-4.531374	CUTLAS	-0.1347161
-4.229331	CUTTING	-0.08868504
-3.976289	D	-0.5418116
-4.531374	DA-	-0.1117923
-4.531374	DA=	-0.1117923
-4.358619	DAILY	-0.1055398
-3.609912	DAMAGE	-0.2233622
-4.531374	DAMAGEABLE	-0.2865273
-4.531374	DAMAGED	-0.1373894
-4.531374	DAMAGES	-0.1309374
-4.531374	DAMAGING	-0.1331431
-4.531374	DAMNIFI=	-0.1117923
-4.229331	DAMNIFIED	-0.3212616
-4.531374	DAN	-0.1254309
-3.7014	DANGER	-0.2174036
-4.084636	DANGEROUS	-0.104203
-4.531374	DANGEROUSLY	-0.1376493
-4.229331	DANGERS	-0.2228025
-4.531374	DANNEMARC	-0.1376555
-4.531374	DARE	-0.1362883
-4.531374	DARES	-0.1277579
-4.531374	DARING	-0.1277579
-4.531374	DARK	-0.1200753
-4.229331	DATE	-0.1240486
-4.084636	DATED	-0.3508869
-4.531374	DAUGHTER	-0.09309563
-4.358619	DAUNCING	-0.1361358
-3.260699	DAY	-0.2649623
-4.358619	DAY\'S	-0.1374765
-4.531374	DAY-LIGHT	-0.1254309
-4.531374	DAY-WATCH	-0.1200753
-3.570508	DAYS	-0.1448555
-3.889647	DE	-0.1446267
-4.084636	DE-	-0.3878895
-4.084636	DE=	-0.4847995
-4.531374	DEAD	-0.1200753
-4.531374	DEAF	-0.1200753
-4.084636	DEAL	-0.1990011
-4.531374	DEALER	-0.1117923
-4.358619	DEALING	-0.1339249
-4.358619	DEALINGS	-0.1335059
-4.531374	DEALS	-0.1200753
-4.531374	DEALT	-0.1350015
-4.358619	DEAR	-0.1276799
-3.817449	DEATH	-0.1801358
-3.976289	DEATHS	-0.1699487
-4.531374	DEB-	-0.1117923
-4.358619	DEBARRED	-0.128746
-4.531374	DEBASED	-0.1324877
-4.531374	DEBASEMENT	-0.1254309
-4.358619	DEBENTURES	-0.1146791
-4.358619	DEBILITY	-0.1368228
-4.358619	DEBT	-0.1246644
-4.229331	DEBTOR	-0.1778557
-4.229331	DEBTORS	-0.07371578
-4.358619	DEC	-0.0987923
-4.229331	DECEASE	-0.52522
-4.531374	DECEASED	-0.1376022
-4.229331	DECEIT	-0.1301126
-4.531374	DECEITFUL	-0.1376555
-4.531374	DECEITFULNESS	-0.1376123
-4.531374	DECEIVED	-0.1117923
-4.229331	DECEMBER	-0.2883147
-4.531374	DECENCY\'S	-0.1376325
-4.531374	DECEPTION	-0.1254309
-4.531374	DECEPTIONS	-0.1309374
-4.531374	DECIDE	-0.1373286
-4.531374	DECIDED	-0.1376493
-4.358619	DECIDING	-0.1112596
-4.084636	DECISION	-0.09647009
-4.084636	DECISIONS	-0.2117936
-4.229331	DECLARATION	-0.1227429
-4.531374	DECLARATIONS	-0.1355208
-4.531374	DECLARE	-0.1339099
-3.609912	DECLARED	-0.2273971
-4.358619	DECLARES	-0.1264762
-4.531374	DECLARING	-0.1363546
-4.358619	DECORUM	-0.2901586
-4.358619	DECR	-0.2204623
-4.531374	DECREASE	-0.1252538
-4.531374	DECREASED	-0.1252538
-4.358619	DECREE	-0.1287253
-4.229331	DECREES	-0.1104784
-4.531374	DEDUCT	-0.1372475
-4.531374	DEDUCTED	-0.09643209
-4.358619	DEDUCTING	-0.2885174
-4.084636	DEDUCTION	-0.192054
-4.358619	DEDUCTIONS	-0.1785396
-4.358619	DEED	-0.123222
-4.358619	DEEM	-0.202267
-4.229331	DEEMED	-0.1830687
-4.531374	DEEPLY	-0.1375515
-4.531374	DEFACED	-0.1347161
-4.531374	DEFALCA-	-0.1117923
-3.889647	DEFAMATION	-0.1059797
-4.531374	DEFAMED	-0.1117923
-4.531374	DEFAMING	-0.1309374
-4.229331	DEFAULT	-0.4394092
-4.531374	DEFEATED	-0.4100377
-4.084636	DEFEATING	-0.1277208
-4.531374	DEFEAZANCE	-0.1355208
-4.229331	DEFENCE	-0.148435
-4.531374	DEFEND	-0.1373489
-4.531374	DEFENDER	-0.2764122
-4.531374	DEFENDING	-0.1150791
-4.531374	DEFENDS	-0.1371461
-4.531374	DEFENSE	-0.1254309
-4.358619	DEFERENCE	-0.2789164
-4.531374	DEFI-	-0.1117923
-4.531374	DEFI=	-0.1117923
-4.531374	DEFIANCE	-0.1252538
-4.531374	DEFICIENT	-0.1117923
-4.358619	DEFINE	-0.2034035
-4.229331	DEFINED	-0.1515284
-4.531374	DEFINI	-0.1117923
-4.531374	DEFINI=	-0.1117923
-4.531374	DEFINING	-0.1370752
-4.531374	DEFINITIO	-0.1302992
-3.817449	DEFINITION	-0.1556124
-4.531374	DEFINITIONES	-0.1117923
-4.084636	DEFINITIONS	-0.1193331
-4.531374	DEFINITIVE	-0.1376427
-4.531374	DEFORMITY	-0.1254309
-3.976289	DEFRAUDMENT	-0.4648094
-4.531374	DEFRAY	-0.1254309
-3.09412	DEGREE	-0.3241377
-4.229331	DEGREES	-0.2764122
-4.229331	DELAY	-0.2429409
-4.531374	DELAYS	-0.1317799
-4.531374	DELETERIOUS	-0.1376022
-4.531374	DELIBERATE	-0.1200753
-4.531374	DELIBERATION	-0.1317799
-4.358619	DELICACY	-0.1191935
-4.531374	DELICATE	-0.1376022
-4.531374	DELICT	-0.1324877
-4.531374	DELICTO	-0.1254309
-4.531374	DELICTUM	-0.1376123
-4.531374	DELIGHTED	-0.1350015
-4.084636	DELINQUENCY	-0.1403131
-4.531374	DELIQUENCY	-0.1117923
-4.531374	DELIQUENT	-0.1254309
-4.531374	DELIVER	-0.1618276
-3.7014	DELIVERED	-0.229444
-4.358619	DELIVERING	-0.1334957
-4.358619	DELIVERY	-0.2764122
-4.531374	DELUDE	-0.1363546
-4.531374	DELUDED	-0.1375819
-4.531374	DELUSIVE	-0.1376493
-3.976289	DEMAND	-0.1590748
-4.358619	DEMANDED	-0.2853764
-4.531374	DEMANDING	-0.1331431
-4.531374	DEMINISHED	-0.1339405
-4.531374	DEMONSTRATED	-0.1346039
-4.358619	DEMONSTRATION	-0.1886536
-4.531374	DENIAL	-0.1339507
-4.531374	DENIED	-0.1277579
-4.531374	DENIES	-0.2864967
-4.531374	DENMARK	-0.1309374
-4.531374	DENOMINATED	-0.1339099
-4.531374	DENOMINATES	-0.1367708
-4.531374	DENOMINATION	-0.1254309
-4.531374	DENOUNCE	-0.1341958
-4.531374	DENOUNCED	-0.1339405
-4.358619	DENY	-0.1958267
-4.531374	DENYING	-0.1376022
-4.358619	DEPART	-0.2004396
-4.531374	DEPARTED	-0.1254309
-4.229331	DEPARTMENT	-0.1834939
-4.531374	DEPARTS	-0.2780177
-4.229331	DEPARTURE	-0.1066065
-3.817449	DEPEND	-0.2003095
-4.531374	DEPENDANCE	-0.1277579
-4.358619	DEPENDED	-0.110236
-4.531374	DEPENDENCE	-0.1317799
-4.084636	DEPENDENT	-0.09475258
-4.358619	DEPENDING	-0.2861697
-3.976289	DEPENDS	-0.2268025
-4.531374	DEPENDS^	-0.1362022
-4.531374	DEPLORABLE	-0.1376555
-4.531374	DEPOSE	-0.1200753
-4.531374	DEPOSING	-0.1252538
-4.358619	DEPOSITED	-0.1275867
-4.531374	DEPRAVED	-0.1376427
-4.531374	DEPREDATIONS	-0.1200753
-4.531374	DEPRETIATION	-0.1375414
-4.531374	DEPRIVE	-0.4070346
-4.229331	DEPRIVED	-0.2295763
-4.531374	DEPRIVING	-0.1367302
-4.531374	DEPUTED	-0.1355107
-3.976289	DEPUTY	-0.321372
-4.531374	DERI-	-0.1117923
-4.531374	DERIVE	-0.1117923
-4.084636	DERIVED	-0.1848046
-4.531374	DERIVENT	-0.1376123
-4.531374	DERIVES	-0.2898647
-4.531374	DERSTANDING	-0.137359
-4.531374	DES	-0.1376555
-4.531374	DESCIPLES	-0.1252538
-3.889647	DESCRIBED	-0.1760145
-4.531374	DESCRIP=	-0.1117923
-3.817449	DESCRIPTION	-0.1063108
-4.229331	DESCRIPTIONS	-0.1192619
-4.358619	DESERTED	-0.2050346
-4.531374	DESERTER	-0.1191034
-4.531374	DESERTION	-0.1229287
-4.531374	DESIER	-0.1376022
-3.976289	DESIGN	-0.1458317
-4.531374	DESIGNATION	-0.2778406
-4.229331	DESIGNED	-0.3286467
-4.358619	DESIGNS	-0.09860398
-3.817449	DESIRE	-0.1904415
-4.358619	DESIRED	-0.1337001
-4.358619	DESIRES	-0.1222787
-4.229331	DESIRING	-0.1087932
-4.358619	DESIROUS	-0.2778406
-4.531374	DESIST	-0.1355107
-4.531374	DESOLATE	-0.1376224
-4.531374	DESPITE	-0.1252538
-4.531374	DESSERTER	-0.1376493
-4.531374	DESSERTION	-0.1117923
-4.531374	DESTINCT	-0.1355107
-4.531374	DESTINED	-0.2789164
-4.358619	DESTROY	-0.1336797
-4.358619	DESTROY=	-0.2643791
-4.084636	DESTROYED	-0.1684015
-4.358619	DESTROYING	-0.1293451
-4.358619	DESTROYS	-0.12712
-4.229331	DESTRUCTION	-0.1153714
-4.358619	DESTRUCTIVE	-0.1376135
-4.531374	DESURE	-0.1376493
-4.531374	DETACHMENT	-0.1365069
-4.358619	DETAIL	-0.4695231
-4.531374	DETAILED	-0.1365983
-4.358619	DETAILS	-0.1189871
-4.531374	DETAIN	-0.1309374
-4.358619	DETAINED	-0.1215962
-4.531374	DETAINING	-0.1331431
-4.358619	DETECTED	-0.2079569
-4.531374	DETECTING	-0.1317799
-4.531374	DETECTION	-0.1339507
-4.531374	DETEN-	-0.1117923
-4.358619	DETER	-0.1107966
-4.358619	DETER-	-0.2643791
-4.531374	DETERMI-	-0.1117923
-4.358619	DETERMINABLE	-0.2020621
-4.531374	DETERMINATE	-0.1254309
-3.976289	DETERMINATION	-0.1880921
-4.358619	DETERMINE	-0.08789013
-3.653251	DETERMINED	-0.2538026
-4.531374	DETERMINES	-0.1277579
-4.531374	DETERS	-0.1374097
-4.531374	DETOUR	-0.1200753
-4.531374	DETRACT	-0.1355107
-4.531374	DETRIMENTAL	-0.1302992
-4.531374	DEVASTATION	-0.2282602
-4.358619	DEVIATION	-0.2726621
-4.229331	DEVISEE	-0.6522783
-4.358619	DEVISEES	-0.2821819
-4.531374	DEVOTED	-0.1376555
-4.531374	DI-	-0.1117923
-4.531374	DIARISM	-0.1317799
-4.229331	DICE	-0.1160963
-4.531374	DICIAL	-0.1373793
-4.531374	DICR	-0.1376555
-4.531374	DICTATE	-0.1277579
-4.358619	DICTATED	-0.1780622
-3.501035	DID	-0.2489603
-3.7014	DIE	-0.1215764
-4.229331	DIED	-0.1545488
-4.084636	DIES	-0.1494993
-4.531374	DIET	-0.1117923
-4.531374	DIETED	-0.1302992
-4.531374	DIF	-0.1324877
-4.531374	DIF-	-0.1117923
-4.358619	DIF=	-0.2643791
-4.531374	DIFF	-0.1117923
-4.358619	DIFFE=	-0.2643791
-3.7014	DIFFERENCE	-0.2023815
-3.755559	DIFFERENCES	-0.1342969
-3.388545	DIFFERENT	-0.1373717
-4.358619	DIFFERS	-0.2866691
-4.531374	DIFFI-	-0.1117923
-4.531374	DIFFICUL	-0.1324877
-3.976289	DIFFICULT	-0.2577994
-4.084636	DIFFICULTIES	-0.11608
-3.976289	DIFFICULTY	-0.1526926
-4.358619	DIG	-0.1200555
-4.531374	DIGEST	-0.1365881
-4.531374	DIGGING	-0.1324877
-4.531374	DIGNATION	-0.137065
-4.358619	DIGNIFIED	-0.1116791
-4.531374	DIGNITATE	-0.1277579
-4.531374	DIGRESSION	-0.1324877
-4.531374	DILEMMA	-0.1335829
-4.084636	DILIGENCE	-0.1158621
-4.531374	DIM	-0.1254309
-3.976289	DIMENSIONS	-0.1956155
-3.976289	DIMINISHED	-0.1097815
-4.531374	DIMINISHING	-0.136994
-4.531374	DIMINISSHED	-0.1375211
-4.229331	DIMINUTION	-0.1165806
-4.531374	DIMITIOR	-0.1364358
-4.531374	DINARY	-0.1114425
-4.531374	DINATION	-0.1252538
-4.531374	DINT	-0.2778406
-4.531374	DIO	-0.1376555
-4.531374	DIPLOMATIC	-0.1376493
-3.653251	DIRECT	-0.2956333
-4.531374	DIRECT-	-0.1117923
-3.7014	DIRECTED	-0.2347449
-4.531374	DIRECTI-	-0.1117923
-3.976289	DIRECTION	-0.2499042
-3.817449	DIRECTIONS	-0.2465559
-3.817449	DIRECTLY	-0.1507116
-4.531374	DIRT	-0.1324877
-4.084636	DIS-	-0.3878895
-4.084636	DIS=	-0.5639808
-4.531374	DISABLE	-0.1367302
-4.358619	DISABLED	-0.13239
-4.531374	DISABLEMENT	-0.1374198
-4.531374	DISAD	-0.1324877
-4.531374	DISADVANTAGE	-0.1339507
-4.531374	DISADVANTAGEOUS	-0.1277579
-4.531374	DISADVANTAGES	-0.1200753
-4.531374	DISAFFIRMED	-0.1339405
-4.531374	DISAGREEMENT	-0.1117923
-4.531374	DISAP-	-0.1117923
-4.531374	DISAPPEARED	-0.1200753
-4.531374	DISAPPOINTED	-0.1347161
-4.358619	DISAPPOINTMENT	-0.123222
-4.531374	DISAPPROBATION	-0.1252538
-4.531374	DISAPPROVERS	-0.1252538
-4.531374	DISAVOWAL	-0.1200753
-4.531374	DISAVOWS	-0.1363546
-4.531374	DISBANDED	-0.1376555
-4.531374	DISBURSED	-0.1339405
-4.531374	DISCARDED	-0.1376224
-4.358619	DISCHARGE	-0.4629891
-4.229331	DISCHARGED	-0.2305529
-4.084636	DISCIPLINE	-0.09162246
-4.531374	DISCLOSED	-0.1200753
-4.531374	DISCO=	-0.1117923
-4.531374	DISCONTENANCE	-0.1355208
-4.531374	DISCONTENT	-0.1376555
-4.531374	DISCOUNT	-0.1364358
-4.531374	DISCOUNTENANCE	-0.1117923
-4.531374	DISCOURAGED	-0.1355107
-3.889647	DISCOURSE	-0.1194596
-4.531374	DISCOURSES	-0.1071399
-4.531374	DISCOURSING	-0.1252538
-4.084636	DISCOVER	-0.07997079
-4.531374	DISCOVERABLE	-0.1339405
-3.976289	DISCOVERED	-0.1170368
-4.229331	DISCOVERY	-0.1176558
-4.358619	DISCREDITABLE	-0.282886
-4.358619	DISCREET	-0.2069252
-4.084636	DISCRETION	-0.169287
-4.358619	DISCRIMINATING	-0.125217
-4.531374	DISCUSSED	-0.1376555
-4.358619	DISCUSSION	-0.09309563
-4.358619	DISEASE	-0.1194098
-4.531374	DISEASES	-0.1254309
-4.531374	DISENSSIONS	-0.1347161
-4.229331	DISGRACE	-0.1189355
-4.358619	DISGUISES	-0.289733
-4.229331	DISHONEST	-0.1117449
-4.531374	DISHONESTLY	-0.1376555
-4.531374	DISHONESTY	-0.1117923
-4.531374	DISHONOUR	-0.1309374
-4.531374	DISHONOURS	-0.1309374
-4.531374	DISINTER-	-0.1117923
-4.531374	DISINTERESTED	-0.1376555
-4.358619	DISMISS	-0.1302629
-4.531374	DISMISSED	-0.1200753
-4.531374	DISOBEDIENCE	-0.1199615
-4.531374	DISORDERLY	-0.1376555
-4.531374	DISPARITY	-0.1254309
-4.531374	DISPATCHED	-0.1302992
-4.229331	DISPENSING	-0.5895677
-4.531374	DISPERSING	-0.1376555
-4.531374	DISPLAY	-0.1373793
-4.358619	DISPLAYED	-0.1337717
-4.358619	DISPLEASURE	-0.1234313
-4.531374	DISPOSAL	-0.2778406
-4.229331	DISPOSE	-0.5077928
-3.976289	DISPOSED	-0.3828541
-4.084636	DISPOSITION	-0.1009726
-4.531374	DISPOSSESSING	-0.1309374
-4.531374	DISPOSTION	-0.1365374
-4.358619	DISPROPORTION	-0.1176692
-3.976289	DISPUTE	-0.1471
-4.358619	DISPUTES	-0.1222787
-4.531374	DISQUISITION	-0.1277579
-4.531374	DISRESPECTFUL	-0.1277579
-4.358619	DISRESPECTFULLY	-0.2778406
-4.531374	DISSATISFACTION	-0.1117923
-4.531374	DISSATISFIED	-0.1117923
-4.531374	DISSIPATED	-0.1339405
-4.358619	DISSIPATION	-0.09071546
-4.531374	DISSOLUTION	-0.1252538
-4.531374	DISSOLVED	-0.1364663
-3.976289	DISTANCE	-0.0621094
-3.976289	DISTANT	-0.1110567
-4.531374	DISTILLER	-0.1200753
-4.531374	DISTILLER\'S	-0.1370752
-4.531374	DISTILLERS	-0.1200753
-4.084636	DISTINCT	-0.2163827
-3.976289	DISTINCTION	-0.1223534
-3.817449	DISTINCTIONS	-0.1265164
-4.358619	DISTINCTIVE	-0.1376365
-4.531374	DISTINCTLY	-0.1376493
-4.531374	DISTINCTNESS	-0.1252538
-4.531374	DISTINGU=	-0.1117923
-4.229331	DISTINGUISH	-0.148229
-4.084636	DISTINGUISHABLE	-0.1791008
-3.817449	DISTINGUISHED	-0.1923063
-4.531374	DISTINGUISHES	-0.1376224
-4.358619	DISTINGUISHING	-0.1105646
-4.531374	DISTINGUISHS	-0.1368317
-4.531374	DISTR	-0.1376493
-4.084636	DISTRESS	-0.09903523
-4.531374	DISTRESSES	-0.1317799
-4.358619	DISTRESSING	-0.1039667
-4.531374	DISTRIBUTE	-0.1374401
-4.531374	DISTRIBUTED	-0.1352358
-3.889647	DISTRICT	-0.1720706
-4.531374	DISTRICTS	-0.1200753
-4.531374	DISTRUCTION	-0.1370752
-4.531374	DISTRUST	-0.1254309
-4.531374	DISTURB	-0.1200753
-3.976289	DISTURBANCE	-0.2095268
-4.531374	DISTURBED	-0.1376555
-4.358619	DISTURBING	-0.1274104
-4.531374	DISUSED	-0.1376493
-4.358619	DITTO	-0.2780177
-4.531374	DIV-	-0.1117923
-4.358619	DIVERS	-0.471793
-4.531374	DIVERSIONS	-0.1376493
-4.531374	DIVERSITY	-0.2778406
-4.531374	DIVERTED	-0.1352358
-4.531374	DIVEST	-0.1371461
-4.358619	DIVIDED	-0.1372219
-4.531374	DIVIDES	-0.1117923
-4.084636	DIVINE	-0.4095256
-4.531374	DIVINITE	-0.1341958
-4.084636	DIVISION	-0.151161
-4.358619	DIVISIONS	-0.1221003
-4.531374	DIVISIONS-	-0.1117923
-4.531374	DIVISSION	-0.1252538
-4.229331	DLY	-0.1142405
-3.225269	DO	-0.2307768
-4.358619	DO=	-0.2643791
-4.229331	DOCTRINE	-0.1111355
-4.358619	DOCTRINES	-0.1071399
-4.531374	DOCUMENT	-0.1095127
-4.229331	DOCUMENTS	-0.1371218
-3.319934	DOES	-0.3768116
-4.229331	DOG	-0.1781272
-3.570508	DOING	-0.141526
-3.653251	DOMESTIC	-0.2152671
-4.229331	DOMINION	-0.1039719
-4.531374	DOMINIONS	-0.401351
-4.531374	DOMINUTION	-0.1366287
-3.299278	DONE	-0.3397078
-4.531374	DONOR-	-0.1368418
-4.531374	DOOMED	-0.1117923
-4.531374	DOOR	-0.1890044
-4.531374	DOORS	-0.1252538
-4.531374	DORSETSHIRE	-0.1117923
-4.358619	DOTH	-0.2331945
-4.084636	DOUBLE	-0.2390496
-4.531374	DOUBLED	-0.1254309
-3.755559	DOUBT	-0.1084387
-4.531374	DOUBTFUL	-0.1117923
-4.358619	DOUBTS	-0.1165968
-4.531374	DOUCEUR	-0.1335829
-3.889647	DOWN	-0.1432393
-4.531374	DOWNRIGHT	-0.1376123
-4.358619	DOZEN	-0.1330865
-3.976289	DR	-0.2769462
-4.531374	DRAFT-TABLES	-0.1200753
-4.531374	DRAGGING	-0.1277579
-4.531374	DRAMATIC	-0.137592
-4.531374	DRAUGHT	-0.137592
-4.531374	DRAW	-0.1274104
-4.358619	DRAWBACK	-0.1295928
-4.358619	DRAWING	-0.1198693
-3.976289	DRAWN	-0.1095495
-4.531374	DREAD	-0.121428
-4.531374	DREADFUL	-0.1376555
-4.531374	DREADFULLY	-0.1376123
-4.531374	DREAMING	-0.1252538
-4.531374	DREAMT	-0.2726621
-4.358619	DRESS	-0.1302011
-4.531374	DRINKING	-0.1376493
-4.358619	DRIVE	-0.1364305
-4.531374	DRIVEN	-0.1339405
-4.229331	DRIVING	-0.2320697
-4.531374	DROP	-0.1252538
-4.531374	DROPPED	-0.1302992
-4.531374	DROUGHT	-0.1373894
-4.531374	DROWN	-0.1372272
-4.531374	DROWNED	-0.1302992
-4.531374	DRUDGES	-0.137065
-4.531374	DRUGS	-0.1331431
-4.531374	DRUNKENNESS	-0.1254309
-4.531374	DRY	-0.1376493
-4.358619	DRYING	-0.1334957
-4.358619	DU-	-0.2643791
-3.653251	DUE	-0.1683176
-4.084636	DUKE	-0.2338274
-4.531374	DULENT	-0.1376427
-4.229331	DULY	-0.3425644
-4.531374	DUNGEON	-0.1375211
-4.531374	DUOBUS	-0.1376555
-4.358619	DURA	-0.2643791
-4.358619	DURATION	-0.115234
-3.192513	DURING	-0.5192518
-4.531374	DUSTMEN	-0.1365069
-4.358619	DUTIES	-0.09860398
-3.609912	DUTY	-0.176233
-4.229331	DWELLING	-0.08472206
-4.531374	DYING	-0.282886
-4.084636	E	-0.5011598
-4.229331	E-	-0.2629507
-3.414055	EACH	-0.2879691
-4.531374	EADEM	-0.1376493
-4.531374	EAGER	-0.1277579
-4.531374	EAL	-0.1376427
-4.531374	EAR	-0.1254178
-4.229331	EARLY	-0.1077964
-4.531374	EARN	-0.2881626
-4.531374	EARNEST	-0.1376022
-4.531374	EARNINGS	-0.1012661
-4.531374	EAS	-0.1200753
-4.358619	EASE	-0.1359935
-4.531374	EASIER	-0.1277579
-3.889647	EASILY	-0.08684344
-4.229331	EAST	-0.1497468
-4.229331	EASY	-0.1874595
-4.531374	EAT	-0.1347161
-4.531374	ECCENTRICITY	-0.1277579
-4.229331	ECONOMICAL	-0.2453734
-4.084636	ECONOMY	-0.1624916
-4.531374	ECUTORS	-0.1365983
-4.358619	ED	-0.1138663
-4.531374	EDDY	-0.1200753
-4.531374	EDG=	-0.1117923
-4.531374	EDGE	-0.1252538
-4.531374	EDIFICE	-0.1365069
-4.531374	EDIFYING	-0.1317799
-4.358619	EDIT	-0.1249043
-4.531374	EDW	-0.1254309
-4.358619	EDWARD	-0.4137527
-4.531374	EEMBEZZLEMENT	-0.1317799
-4.229331	EF=	-0.2629507
-3.441158	EFFECT	-0.1022138
-4.531374	EFFECTED	-0.2184867
-4.531374	EFFECTING	-0.1346039
-4.531374	EFFECTIVE	-0.2885377
-3.609912	EFFECTS	-0.1036687
-3.889647	EFFECTUAL	-0.1574643
-3.7014	EFFECTUALLY	-0.1200715
-4.531374	EFFECTUATING	-0.2764122
-4.531374	EFFICA-	-0.1117923
-3.889647	EFFICACY	-0.3061258
-4.531374	EFFICATIOUS	-0.1254309
-4.531374	EFFIG-	-0.1117923
-4.531374	EFFLUVIA	-0.1200753
-4.531374	EGGS	-0.1317799
-4.531374	EGYPT	-0.1254309
-4.531374	EGYPTIAN	-0.1376427
-4.531374	EGYPTIANS	-0.1200753
-4.229331	EI	-0.1324488
-4.229331	EI=	-0.2629507
-4.229331	EIGHT	-0.1374192
-4.358619	EIGHTEEN	-0.2331346
-4.531374	EIGHTY	-0.1372475
-2.974016	EITHER	-0.2414428
-4.531374	EJUS	-0.1376555
-4.531374	ELAPSED	-0.1375211
-4.531374	ELEM	-0.1254309
-4.531374	ELEVATED	-0.2891851
-4.531374	ELEVEN	-0.1376123
-4.358619	ELIGIBLE	-0.2887302
-3.976289	ELIZABETH	-0.4043056
-4.531374	ELOQUENCE	-0.1368114
-3.534384	ELSE	-0.1227593
-4.358619	ELSEWHERE	-0.128715
-4.531374	ELYMUS	-0.1376555
-3.889647	EM-	-0.6309276
-4.358619	EM=	-0.2643791
-4.531374	EMACIATING	-0.1363546
-4.531374	EMANCIPATED	-0.1374502
-4.531374	EMBELLISHED	-0.1339507
-4.531374	EMBEZZELMENT	-0.1317799
-4.229331	EMBEZZLED	-0.2810743
-3.7014	EMBEZZLEMENT	-0.4705605
-4.358619	EMBRACED	-0.1055398
-4.531374	EMBRACES	-0.1254309
-4.531374	EMINENT	-0.1117923
-4.531374	EMISSIONE	-0.1254309
-4.531374	EMOLUMENTS	-0.1116146
-4.084636	EMPLOY	-0.154655
-4.531374	EMPLOY\'D	-0.1302992
-4.358619	EMPLOY-	-0.2629507
-4.531374	EMPLOY=	-0.1117923
-3.609912	EMPLOYED	-0.07702257
-4.531374	EMPLOYERS	-0.1200753
-4.084636	EMPLOYING	-0.2405034
-3.976289	EMPLOYMENT	-0.2582983
-4.229331	EN-	-0.2629507
-4.531374	EN=	-0.1117923
-4.084636	ENABLE	-0.2131499
-4.229331	ENABLED	-0.3476537
-4.531374	ENABLES	-0.2835242
-4.084636	ENACTED	-0.2473365
-4.531374	ENACTMENT	-0.1252538
-4.531374	ENCE	-0.1200753
-4.531374	ENCOU-	-0.1117923
-4.358619	ENCOURAGEMENT	-0.1516618
-4.531374	ENCOURAGEMENTS	-0.1372678
-4.531374	ENCREA-	-0.1117923
-4.229331	ENCREASE	-0.2232115
-4.229331	ENCREASED	-0.2476172
-4.229331	ENCREASING	-0.2196551
-4.531374	ENCUMBERED	-0.1350015
-3.755559	END	-0.402138
-4.531374	END-	-0.1368418
-4.358619	ENDAMAGEMENT	-0.2629507
-4.531374	ENDANGER	-0.2263768
-4.531374	ENDANGERED	-0.2726621
-4.531374	ENDANGERING	-0.1370042
-4.358619	ENDEAVOUR	-0.1305306
-4.358619	ENDEAVOURING	-0.2803448
-4.358619	ENDEAVOURS	-0.2803448
-4.358619	ENDLESS	-0.1365015
-4.531374	ENDS	-0.1254309
-4.358619	ENDURED	-0.1297785
-4.531374	ENE=	-0.1117923
-4.229331	ENEMIES	-0.239742
-4.229331	ENEMY	-0.2202954
-4.531374	ENERGY	-0.1653116
-4.531374	ENFORCE	-0.2835242
-4.531374	ENFORCED	-0.1117923
-4.531374	ENFORCEMENT	-0.1252538
-4.531374	ENFORCING	-0.1365881
-4.531374	ENGA-	-0.1117923
-4.084636	ENGAGE	-0.1715328
-4.531374	ENGAGE-	-0.1117923
-4.229331	ENGAGED	-0.2157753
-4.084636	ENGAGEMENT	-0.1084735
-4.084636	ENGAGEMENTS	-0.171616
-4.531374	ENGAGES	-0.1277579
-4.084636	ENGAGING	-0.1479977
-4.531374	ENGINE	-0.2881077
-4.531374	ENGINES	-0.1117923
-3.755559	ENGLAND	-0.2097863
-3.889647	ENGLISH	-0.1524015
-4.358619	ENGLISHMAN	-0.2079569
-4.531374	ENGRAVING	-0.1370752
-4.531374	ENGROSSED	-0.1339405
-4.531374	ENHANCE	-0.1339405
-3.755559	ENHANCEMENT	-0.1630124
-4.229331	ENJOINED	-0.1892156
-4.531374	ENJOY	-0.1309374
-4.531374	ENJOY\'D	-0.1339405
-4.358619	ENJOYED	-0.285099
-4.358619	ENJOYING	-0.2218991
-4.531374	ENJOYMENT	-0.1200753
-4.531374	ENLARGED	-0.1254309
-4.358619	ENLARGING	-0.2889414
-4.531374	ENLIGHTENED	-0.1376555
-4.531374	ENLIST	-0.1297681
-4.229331	ENMITY	-0.163624
-4.531374	ENNOBLED	-0.1302992
-4.531374	ENORMITIES	-0.1374705
-4.531374	ENORMOUS	-0.1375819
-3.470065	ENOUGH	-0.2378649
-4.358619	ENQUIRING	-0.09860398
-4.084636	ENQUIRY	-0.1137486
-4.531374	ENSNARE	-0.1117923
-4.229331	ENSUE	-0.06529202
-4.531374	ENSUING	-0.1347161
-4.531374	ENSURED	-0.1339405
-4.531374	ENSURING	-0.1114533
-4.229331	ENTER	-0.2437354
-4.229331	ENTERED	-0.2318158
-4.358619	ENTERING	-0.10921
-4.531374	ENTERTAIN	-0.2174168
-4.084636	ENTERTAINED	-0.2302591
-4.531374	ENTERTAINING	-0.1365272
-4.229331	ENTIRE	-0.1164686
-4.358619	ENTIRELY	-0.136664
-4.531374	ENTITIES	-0.1346039
-4.084636	ENTITLED	-0.4863126
-4.531374	ENTREAT	-0.1373793
-4.358619	ENTRY	-0.1367452
-4.531374	ENUMERATE	-0.1117923
-4.531374	ENUMERATED	-0.1309374
-4.531374	ENUMERATION	-0.1250398
-4.531374	ENVELOPPED	-0.1117923
-4.531374	ENVENOMED	-0.1376555
-4.531374	ENVY	-0.1375718
-4.531374	EPISTLE	-0.1355107
-4.358619	EPITHET	-0.1105487
-3.609912	EQUAL	-0.1523406
-4.531374	EQUAL-	-0.1117923
-4.531374	EQUALITY	-0.1350015
-3.755559	EQUALLY	-0.1705415
-4.531374	EQUI=	-0.1117923
-4.531374	EQUITABLE	-0.1277579
-4.229331	EQUITY	-0.1124147
-4.229331	EQUIVALENT	-0.1236978
-4.531374	EQUIVILENT	-0.1372374
-4.531374	EQUIVOCAL	-0.1369534
-4.531374	ERCISE	-0.1252538
-4.358619	ERE	-0.111421
-4.531374	ERECT	-0.1055398
-4.229331	ERECTED	-0.1509501
-4.531374	ERECTI-	-0.1117923
-4.084636	ERECTING	-0.2825752
-4.531374	ERECTION	-0.194162
-4.531374	ERECTIONS	-0.1376325
-3.976289	ERR	-0.2510539
-4.358619	ERRING	-0.1295928
-4.358619	ERRONEOUS	-0.1272964
-4.358619	ERROR	-0.1342925
-4.531374	ERRORS	-0.1200753
-4.531374	ERRS	-0.1355107
-4.531374	ES	-0.1339099
-3.889647	ESCAPE	-0.2756279
-4.531374	ESCAPED	-0.1376325
-3.817449	ESPECIALLY	-0.1333024
-4.358619	ESQ	-0.1897143
-4.531374	ESQRE	-0.1254309
-4.531374	ESQUIRE	-0.2154834
-4.531374	ESSE	-0.1376555
-4.229331	ESSENTIAL	-0.1968241
-4.084636	EST	-0.1356858
-4.531374	ESTA-	-0.1117923
-4.531374	ESTAB-	-0.1117923
-4.358619	ESTABLISH	-0.1007696
-4.358619	ESTABLISH-	-0.2629507
-4.531374	ESTABLISH=	-0.1117923
-3.755559	ESTABLISHED	-0.08115172
-4.531374	ESTABLISHEMENT	-0.1365374
-4.531374	ESTABLISHING	-0.1252538
-3.609912	ESTABLISHMENT	-0.2682801
-4.531374	ESTABLISHMENTS	-0.1339507
-4.531374	ESTABLISHMNENT	-0.1317799
-3.889647	ESTATE	-0.3058613
-4.531374	ESTATE_	-0.1117923
-4.531374	ESTATE_NOW	-0.1371867
-4.531374	ESTEEM	-0.1252538
-4.358619	ESTI-	-0.2643791
-3.889647	ESTIMATE	-0.1713465
-4.229331	ESTIMATED	-0.2802682
-4.531374	ESTIMATES	-0.2882944
-4.531374	ESTIMATING	-0.1309374
-4.358619	ESTIMATION	-0.1126564
-4.531374	ET	-0.1376555
-4.358619	ETC	-0.1126564
-4.531374	ETERNAL	-0.1374299
-4.531374	ETIAM	-0.1376555
-4.531374	ETRES	-0.1376427
-4.531374	EUROPEAN	-0.1375211
-4.531374	EVADING	-0.1309374
-4.531374	EVASION	-0.1254309
-4.531374	EVE	-0.1371563
-3.147591	EVEN	-0.1915744
-4.531374	EVENING	-0.1376555
-4.229331	EVENT	-0.3015589
-4.229331	EVENTS	-0.07483456
-4.531374	EVENTUAL	-0.1376427
-4.084636	EVENTUALLY	-0.1627435
-3.242623	EVER	-0.1774864
-2.928763	EVERY	-0.3946766
-4.531374	EVERYBODY	-0.137592
-4.531374	EVERYMAN	-0.1339507
-4.531374	EVI=	-0.1117923
-3.501035	EVIDENCE	-0.2428664
-4.531374	EVIDENT	-0.180637
-4.358619	EVIDENTIARY	-0.1043876
-4.229331	EVIDENTLY	-0.1365977
-4.084636	EVIL	-0.1794254
-4.531374	EVILS	-0.1254309
-4.531374	EVINCED	-0.1339405
-4.084636	EX	-0.1759041
-3.817449	EX-	-0.7858295
-4.531374	EX-POST-FACTO	-0.1117923
-4.358619	EX=	-0.2643791
-4.531374	EXACT	-0.1376493
-4.531374	EXACTING	-0.1200753
-3.889647	EXACTLY	-0.1258796
-4.531374	EXACTNESS	-0.1317799
-4.531374	EXALTED	-0.1375616
-4.531374	EXAMI-	-0.1117923
-4.531374	EXAMIN=	-0.1117923
-3.976289	EXAMINATION	-0.11037
-4.531374	EXAMINATIONS	-0.1254309
-4.531374	EXAMINE	-0.1335979
-3.889647	EXAMINED	-0.158979
-4.229331	EXAMINING	-0.1014915
-3.889647	EXAMPLE	-0.2142015
-4.229331	EXAMPLES	-0.1870777
-4.358619	EXCEED	-0.4578318
-4.531374	EXCEED-	-0.1117923
-4.229331	EXCEEDING	-0.4121281
-4.531374	EXCEEDINGLY	-0.1376325
-4.531374	EXCEEDS	-0.1309374
-4.358619	EXCELLENCY	-0.2726621
-4.531374	EXCELLENT	-0.1368621
-3.976289	EXCEPT	-0.2386922
-3.976289	EXCEPTED	-0.3649777
-3.889647	EXCEPTION	-0.1717167
-4.358619	EXCESS	-0.1243094
-4.531374	EXCHANG=	-0.1117923
-4.229331	EXCHANGE	-0.1083276
-4.531374	EXCHE-	-0.1117923
-4.531374	EXCHEQUER	-0.1376022
-4.229331	EXCITE	-0.1995248
-4.358619	EXCITED	-0.1078346
-4.358619	EXCLUDE	-0.1368413
-4.358619	EXCLUDING	-0.1367959
-4.531374	EXCLUSION	-0.1310451
-3.976289	EXCLUSIVE	-0.5077928
-4.531374	EXCLUSIVELY	-0.1277579
-3.755559	EXCUSE	-0.09718154
-4.229331	EXCUSED	-0.2259871
-3.889647	EXCUSES	-0.2672904
-4.358619	EXE-	-0.2643791
-4.531374	EXECUT	-0.1324877
-4.531374	EXECUTE	-0.1309374
-3.889647	EXECUTED	-0.1209372
-3.755559	EXECUTION	-0.3859577
-4.531374	EXECUTIVE	-0.137359
-4.531374	EXECUTOR	-0.2843015
-4.229331	EXECUTORS	-0.2070736
-4.531374	EXEMPLARY	-0.1373185
-4.531374	EXEMPLIFIED-	-0.2643791
-4.358619	EXEMPT	-0.2312058
-4.531374	EXEMPTED	-0.1355107
-4.531374	EXEMPTIVE	-0.1376022
-4.531374	EXER-	-0.1117923
-4.531374	EXER=	-0.1117923
-3.889647	EXERCISE	-0.5422717
-3.889647	EXERCISED	-0.2929987
-4.531374	EXERCISES	-0.1346039
-4.358619	EXERCISING	-0.1361155
-4.358619	EXERT	-0.135098
-4.531374	EXERTED	-0.1117221
-4.084636	EXERTIONS	-0.07581104
-4.531374	EXERTRIONS	-0.1252538
-4.531374	EXHAUSTED	-0.1254309
-4.358619	EXHAUSTIVE	-0.1253942
-4.531374	EXHI	-0.1324877
-4.531374	EXHI-	-0.1117923
-4.531374	EXHIBI-	-0.1117923
-4.358619	EXHIBIT	-0.1274104
-4.229331	EXHIBITED	-0.09493141
-4.229331	EXHIBITING	-0.2482032
-4.531374	EXHILERATING	-0.1117221
-4.531374	EXI=	-0.1117923
-4.531374	EXIGENCIES	-0.1339099
-4.358619	EXIGENCY	-0.129995
-4.358619	EXIST	-0.1620698
-4.531374	EXIST-	-0.1117923
-4.531374	EXISTED	-0.1200753
-3.889647	EXISTENCE	-0.152757
-4.358619	EXISTING	-0.1363797
-4.358619	EXISTS	-0.1187918
-4.531374	EXITIOSUM	-0.1117923
-4.531374	EXORBITANT	-0.1376224
-4.531374	EXPE	-0.1324877
-3.889647	EXPECT	-0.22622
-4.229331	EXPECTATION	-0.1182987
-4.229331	EXPECTATIONS	-0.1259196
-3.755559	EXPECTED	-0.2944388
-4.531374	EXPECTS	-0.1339507
-4.531374	EXPEDI-	-0.1117923
-4.084636	EXPEDIENCY	-0.09772712
-3.889647	EXPEDIENT	-0.1936149
-4.358619	EXPEDIENTS	-0.1219793
-4.531374	EXPEDITED	-0.1374907
-4.358619	EXPEDITION	-0.1361053
-4.531374	EXPELLED	-0.1368114
-3.341622	EXPENCE	-0.4195745
-3.976289	EXPENCES	-0.2329895
-4.358619	EXPEND	-0.1095019
-4.229331	EXPENDED	-0.2132946
-4.084636	EXPENDITURE	-0.1846277
-4.531374	EXPENSE	-0.1252538
-4.531374	EXPENSES	-0.1376427
-4.358619	EXPENSIVE	-0.2455125
-4.531374	EXPERI-	-0.1117923
-3.889647	EXPERIENCE	-0.07122601
-4.531374	EXPERIMENT	-0.1365374
-4.531374	EXPERIMENTAL	-0.1375414
-4.531374	EXPI-	-0.1117923
-4.531374	EXPIRA-	-0.2643791
-4.358619	EXPIRATION	-0.4498009
-4.084636	EXPIRED	-0.1732259
-4.531374	EXPIRED+	-0.1117923
-3.817449	EXPIREES	-0.3048028
-4.358619	EXPLAIN	-0.2053083
-4.229331	EXPLAINED	-0.1773462
-4.531374	EXPLANATION	-0.1117923
-4.229331	EXPLANATIONS	-0.1306206
-4.531374	EXPLANATORY	-0.1117923
-4.358619	EXPLICIT	-0.1108828
-4.358619	EXPLOSION	-0.1126564
-4.531374	EXPORTED	-0.1277579
-3.976289	EXPOSE	-0.2031468
-3.889647	EXPOSED	-0.4710832
-3.976289	EXPOSING	-0.169856
-4.358619	EXPOSITION	-0.6449211
-4.358619	EXPOSITORY	-0.1372928
-4.531374	EXPOSURE	-0.1339507
-4.358619	EXPRES-	-0.2643791
-3.889647	EXPRESS	-0.1429558
-3.755559	EXPRESSED	-0.1533622
-4.229331	EXPRESSING	-0.2887505
-3.755559	EXPRESSION	-0.1558628
-4.358619	EXPRESSIONS	-0.1105164
-4.531374	EXPRESSIVE	-0.1252538
-4.358619	EXPRESSLY	-0.2072437
-4.531374	EXPREST	-0.1368824
-4.358619	EXTEND	-0.1078021
-3.976289	EXTENDED	-0.1830624
-4.358619	EXTENDING	-0.1270681
-4.358619	EXTENDS	-0.1327384
-4.229331	EXTENSION	-0.1104999
-4.531374	EXTENSIONS	-0.1368824
-4.229331	EXTENSIVE	-0.1199022
-4.358619	EXTENT	-0.1126564
-4.531374	EXTENUATION	-0.4847186
-4.358619	EXTENUATIONS	-0.3878895
-4.531374	EXTER-	-0.1117923
-4.531374	EXTERIOR	-0.1376224
-3.889647	EXTERNAL	-0.4538911
-4.229331	EXTINGUISHED	-0.1073041
-4.531374	EXTIRPATED	-0.1331431
-4.531374	EXTORTED	-0.1355107
-4.531374	EXTORTING	-0.1373995
-4.084636	EXTORTION	-0.2604598
-4.531374	EXTRA	-0.1376224
-4.531374	EXTRACT	-0.1355107
-4.531374	EXTRACTED	-0.2880975
-4.229331	EXTRACTS	-0.1654537
-4.531374	EXTRAO	-0.2896011
-4.358619	EXTRAODINARY	-0.2899255
-4.531374	EXTRAOR-	-0.2643791
-4.531374	EXTRAORDI=	-0.1117923
-3.889647	EXTRAORDINARY	-0.1592104
-4.531374	EXTRAVAGANCE	-0.1252538
-4.229331	EXTREMELY	-0.1375576
-3.817449	EYE	-0.2323146
-4.531374	EYE-	-0.1376123
-4.358619	EYE-WITNESS	-0.1012661
-4.531374	EYE-WITNESSES	-0.1200753
-3.976289	EYES	-0.1312287
-4.084636	F	-0.2466163
-4.531374	FABRI=	-0.1117923
-4.531374	FABRICATION	-0.1254309
-4.531374	FAC-SIMILES	-0.1355208
-3.817449	FACE	-0.1603081
-4.531374	FACES	-0.1252538
-4.531374	FACETIOUS	-0.1376493
-4.531374	FACIE	-0.10921
-4.531374	FACIENDI	-0.1376555
-4.531374	FACILITY	-0.1252538
-3.7014	FACT	-0.1182967
-4.358619	FACTITIOUS	-0.1365117
-4.531374	FACTO	-0.1370752
-3.817449	FACTS	-0.08795228
-4.358619	FACULTY	-0.2176583
-3.889647	FAIL	-0.1364234
-4.358619	FAILS	-0.1115121
-4.084636	FAILURE	-0.3677025
-4.531374	FAINT	-0.1254309
-4.531374	FAINTER	-0.1375819
-4.358619	FAIR	-0.2283368
-4.358619	FAIRER	-0.2803448
-4.358619	FAIRLY	-0.1374347
-4.229331	FAITH	-0.1174248
-4.358619	FAITHFUL	-0.1275763
-4.531374	FALCONET	-0.1277579
-3.7014	FALL	-0.1273229
-4.531374	FALLEN	-0.1370447
-3.976289	FALLS	-0.1630362
-3.319934	FALSE	-0.1644934
-4.358619	FALSEHOOD	-0.136532
-4.084636	FALSELY	-0.1315341
-4.531374	FALSHOODS	-0.1302992
-4.358619	FALSIFICATION	-0.1115071
-4.531374	FALSITY	-0.1331431
-4.358619	FAME	-0.2343024
-4.531374	FAMILARIZED	-0.1277579
-4.531374	FAMILIARITIES	-0.1350015
-4.229331	FAMILIES	-0.08794224
-3.653251	FAMILY	-0.4412711
-4.531374	FAMINA	-0.1376555
-4.531374	FAMINAM	-0.1376555
-4.229331	FAMINE	-0.1185958
-4.531374	FANCIED	-0.1376555
-4.531374	FANCY	-0.1365069
-3.653251	FAR	-0.4761534
-4.531374	FAR-	-0.1117923
-4.358619	FARMERS	-0.1295412
-4.358619	FARMS	-0.1113723
-3.653251	FARTHER	-0.1968736
-4.531374	FASHION	-0.1364155
-4.358619	FAST	-0.119922
-4.531374	FATAL	-0.1376123
-4.229331	FATE	-0.1338916
-4.084636	FATHER	-0.1483058
-4.531374	FAULT	-0.1364358
-4.531374	FAVOR	-0.1252538
-4.531374	FAVORITES	-0.1254309
-3.889647	FAVOUR	-0.1576529
-4.084636	FAVOURABLE	-0.1847693
-4.358619	FAVOURITE	-0.1376096
-4.531374	FDEFRAUDS	-0.1254309
-4.229331	FEAR	-0.1674995
-4.531374	FEARCELY	-0.1376325
-4.531374	FEARS	-0.1317799
-4.229331	FEATURES	-0.2136088
-4.531374	FEB	-0.1371563
-4.358619	FEBRUARY	-0.2883147
-4.531374	FEBRY	-0.1375313
-4.531374	FEBY	-0.1371563
-3.976289	FEE	-0.3059217
-4.358619	FEEBLE	-0.1280011
-4.229331	FEED	-0.3366278
-3.976289	FEEL	-0.1611196
-4.531374	FEELING	-0.1200753
-4.531374	FEELINGS	-0.1117923
-4.229331	FEELS	-0.1858772
-4.358619	FEES	-0.223979
-4.531374	FEIGNED	-0.1373387
-4.531374	FEL	-0.1376493
-4.229331	FELL	-0.1018876
-4.531374	FELLING	-0.1372577
-4.358619	FELLOW	-0.233131
-4.531374	FELLOWS	-0.1254309
-4.229331	FELON	-0.3261023
-4.229331	FELONIES	-0.3773458
-4.229331	FELONIOUS	-0.2278283
-4.358619	FELONS	-0.2651002
-3.976289	FELONY	-0.449118
-3.889647	FELT	-0.1239206
-4.358619	FEMALE	-0.1246693
-4.531374	FEMALES	-0.1368621
-4.531374	FENCE	-0.1355208
-4.531374	FENCES	-0.1364764
-3.755559	FEOFFEE	-0.2672591
-4.531374	FEOFFEES	-0.1317799
-4.531374	FERENT	-0.1200753
-4.531374	FERR\'D	-0.1117923
-4.531374	FERRE	-0.1376555
-4.531374	FERRY-BOAT	-0.1200753
-4.531374	FETCHED	-0.1374097
-4.358619	FEVER	-0.120062
-3.755559	FEW	-0.1592585
-4.531374	FEWEL	-0.1117923
-4.358619	FEWER	-0.2895403
-4.531374	FF	-0.1200753
-4.531374	FFEOF-	-0.1117923
-4.229331	FFEOFFEE	-0.2025457
-4.531374	FFEOFFEES	-0.1229546
-4.531374	FI=	-0.1117923
-4.531374	FICE	-0.1302992
-4.084636	FICTION	-0.2386792
-4.531374	FIDE	-0.1331302
-4.531374	FIED	-0.1277579
-4.358619	FIELD	-0.2326278
-4.358619	FIELDS	-0.1843789
-4.531374	FIFTEENTH	-0.1117923
-4.358619	FIFTH	-0.1810846
-4.531374	FIFTHLY	-0.1117923
-4.358619	FIFTY	-0.1331479
-4.531374	FIGHTING	-0.1335829
-4.229331	FIGURE	-0.1064165
-4.358619	FIGURED	-0.2902361
-4.358619	FIL	-0.1073245
-4.531374	FILIAL	-0.1117923
-4.358619	FILINGS	-0.1205967
-4.531374	FILL	-0.1359427
-4.531374	FILLING	-0.1309374
-4.531374	FILOUTERIE	-0.1302992
-4.531374	FIN	-0.1376555
-4.531374	FINAL	-0.1117923
-3.817449	FIND	-0.1194863
-3.976289	FINDING	-0.2026135
-4.358619	FINDS	-0.1332502
-3.976289	FINE	-0.1094193
-4.358619	FINED	-0.1722069
-4.531374	FINESSE	-0.1254309
